solver_type L2R_LR
nr_class 5
label 0 1 2 3 4
nr_feature 1452
bias 0.1
w
-0.002888383180139373 0.105539108185837 0.05082496224168299 -0.1106772447343037 -0.1156558426662993 
-0.2709873350546638 0.1103701198230411 0.1316271955809524 -0.1274883932358529 0.06890075615356543 
-0.07692688623069464 0.3852728963795492 -0.1492850184751837 -0.1681768665877988 -0.07036328626513713 
-0.2269623147664584 -0.07156216768470844 0.1937248519557287 -0.04574321380954702 0.09920327766411863 
-0.090999845611659 -0.1242776944138143 0.0891820421351449 -0.03655171448652315 0.07882270130785857 
-0.05199754067741838 0.1357566511783272 0.08410983349639158 -0.1182712838423276 -0.1331167254513319 
0.07106790312738663 0.2148901263582532 -0.09433947298154467 -0.1524799030733189 -0.09966533990644874 
-0.01343269847468934 0.006135409472777877 0.1115885942210844 -0.09011928361783444 -0.1217550120194989 
-0.07661286935460672 -0.1757083546533634 0.2075420526167838 0.02565227395368367 -0.05548358618288943 
0.02232350436727431 0.1031010044614114 0.01640574467164274 -0.1300227171872585 -0.1118760115566067 
0.0868318682246893 -0.04969801921264627 0.09748827532311533 -0.1504482530007362 -0.06697680065780227 
0.04947143615874976 0.2201352169650472 -0.1852443128777023 -0.1252740760532099 -0.08460413727177139 
0.05420902731899399 -0.2082881445910893 0.2314775564900416 -0.06741828370449982 -0.009210082075212008 
-0.05123724550787234 -0.1316564129568307 0.114083747084715 0.0007259403447919561 0.01926732650004569 
0.009729035826875317 0.1374967067781262 -0.003677040358197614 -0.1173480642274013 -0.1259874108093545 
0.02930193162984835 0.2038561030967655 -0.04336361530990985 -0.1582109948595204 -0.09740478968367219 
-0.04417794590947115 0.006575053399886385 0.1711005621775452 -0.1245327065864711 -0.1194482731937306 
-0.1229465089689445 -0.2756925450868687 0.3676843526596427 -0.002810223676201036 -0.0787352226560067 
-0.02405908290556148 0.09457757966739168 0.0617650155716154 -0.09168507257928271 -0.06930252648104734 
-0.05248993435975038 0.08479035951562877 0.1530257856434982 -0.06989810273080181 -0.02697469477186457 
0.06480009566598972 0.06204334216261902 -0.1351146420359952 -0.07385249132955646 -0.0632011347277006 
-0.130089578885299 0.05392213159134555 0.3288434259157235 -0.02317520442342556 0.02357147578180556 
-0.03504509248797605 0.02932006407048571 0.05744109073434049 -0.06714449072025122 0.04696210008040199 
-0.07457860637246935 0.06579548328890551 0.1487285943266811 -0.1095482997695475 -0.07860638117781041 
0.001480873436213317 0.1328362247413529 -0.007879613218655986 -0.1299230087194614 -0.05224944998548768 
-0.06037623249755381 0.07903900452057519 0.1120144510974441 -0.03977810858634517 -0.07228728336056946 
-0.08140850765405726 -0.02109968220795955 0.1558968026393886 0.07036536593723147 -0.04629332857283463 
0.07857737667596976 -0.02619196953086547 0.1163300325017981 -0.1519989611590877 -0.142134808700341 
-0.1114636189524096 -0.1056405329426152 0.2960825167185469 -0.05565894436911443 -0.09425055850190789 
-0.04863442180972322 0.02680761467732013 -0.01053813036197641 -0.02103614855638087 -0.03270291044330409 
-0.1108155172707702 -0.1070399590790036 0.2981675604958587 -0.05543250024164986 -0.0939212576357048 
-0.08948101936903197 -0.1177949724659015 0.1526080993453046 -0.08342924125655347 -0.03049774462414139 
0.1356121846472315 -0.005037505948852531 0.008590168842136287 -0.1181246335818933 -0.09108697426477752 
-0.265100832997833 0.06768066709147622 0.2085448205437188 -0.04246018393392641 -0.06921732307062028 
0.09326691564743111 0.08856645608049085 -0.04205602729674977 -0.1374323683652598 -0.1106657852082479 
0.1742235213004809 0.06880266539601632 -0.1062719195155489 -0.1256650347156463 -0.09044164474408468 
0.03827836227261726 -0.004908174345715324 0.007291028060788283 -0.1145243178200747 -0.007768698607722899 
0.01365191916816335 -0.06412169435693177 0.01560211292498351 -0.0490361860263104 0.007610789397769533 
-0.03185278893493614 0.07492885148925299 -0.02178362581283954 -0.05999292577098685 -0.01496532339170418 
0.01411476925917118 -0.06524732195653515 0.01580210975219055 -0.04802608089820769 0.007847535338698928 
-0.07663600029812037 -0.03990754052904651 0.1019408731973369 -0.03981113315378425 -0.001100058481508013 
-0.03861122430470808 0.1454668795453018 0.1716683555923673 -0.1448456914214107 -0.0899967891147081 
-0.1244836840008655 0.1653485377272036 0.1497365606951631 -0.06896406778526389 -0.06382511811219252 
0.1599418224770346 0.01447252476293661 -0.08971375509966485 -0.1694702780058863 0.04095994978874237 
0.2593048943068648 -0.05422918848903771 -0.1815026544243662 -0.186574654874518 0.08054660443080239 
-0.03457385566455153 -0.1135877133008075 -0.0392416931224969 0.09149178093737902 0.03511922183732846 
0.0209046211560563 0.02974693769047335 -0.01138147545373179 -0.04373458100584583 -0.0581717769965855 
-0.08487981695646823 -0.09365379610489338 -0.0008527460020975024 0.06661017625891197 0.06585776739477425 
0.05124800577082991 0.08396083310708632 -0.04363914343171994 -0.07733857040450567 -0.07805532359873008 
-0.02185284763223889 0.03467618682862315 -0.04805874404702964 -0.1246005702943215 -0.03139114802783666 
-0.07609739392011279 -0.1496800776232132 0.03116702866138498 0.01938587465933181 0.09898699914664852 
-0.03317267900576983 -0.2214950609377924 -0.1579543599219208 0.2496280504349549 0.148617812221698 
-0.05368760275150926 -0.0006743545054561963 0.1303193399932979 -0.1598502691534843 -0.04391030537000844 
-0.02379026474820689 0.1484297483409815 0.1542681516564885 -0.2698096295229095 -0.123236709744189 
-0.400219328595305 -0.02108814135898339 0.2445596222828476 0.01240358528486071 0.1272528166940654 
-0.1404577604533333 0.1338195215442958 0.06640545456067995 -0.1098122201217471 -0.01852215051561164 
-0.06948427801606982 -0.04239409730833734 -0.02310873428012206 0.07706999027728709 0.02114998009907824 
-0.05845190844357431 0.1083177195589374 0.0175067192285715 -0.1111553838650925 -0.0217771798147961 
-0.01943940754295357 0.04534535160784816 -0.07023686562953722 -0.06575944941348984 -0.003143026788205387 
-0.1724191071906576 -0.0474840125926357 0.01796026134256474 0.09652816645997893 0.1353418271270596 
-0.019548311564589 -0.2515721009761979 -0.09738980882250511 0.1922554285223931 0.1138120273249381 
-0.4073506667562756 0.2735572139984499 0.267688361055837 -0.2397361332125633 0.06810471253731845 
-0.1722470407860893 0.3172396241730271 0.1380273874750878 -0.257620107497733 -0.05771750056313832 
0.1992956820946721 0.003009889349995496 0.06402019042805274 0.03946850276354658 -0.293612958758283 
0.4636955586121936 0.05683356544444366 -0.1753645532202483 0.0005872852347961292 -0.2383446670214908 
-0.1601364103197089 -0.03881111871207037 0.1051260760147463 -0.02520624905921826 -0.008220271641189861 
0.473115352116197 0.05911657262495942 -0.181548447972953 0.002070005733043534 -0.2378611216128007 
0.367365881513895 -0.06428617351863784 -0.09115875559275931 -0.09150630412437434 -0.1119408654206414 
0.07002339990561295 -0.0280885792540261 0.1284191075258596 0.04531003526453223 -0.231770351117736 
-0.1398832203886966 0.1898426733145294 0.111847255665391 -0.01600801111753219 -0.1834215282066959 
-0.04550488024975881 0.01278194454322943 0.2208643206008774 0.04204563099744123 -0.2289019284347668 
0.001203078538146128 -0.05410600079870814 0.196694882073341 0.05076603922865403 -0.1797443768138767 
0.1007729853405036 0.1692948812618691 0.02653309840018453 -0.08507908027800121 -0.1635891506668614 
-0.1197669113956366 0.1265814392272695 0.1187814847370398 -0.07302702347958182 -0.02287988903739339 
0.01122010628755054 0.3952007318415846 -0.1386883661258415 -0.2441375572537064 -0.08619649521380511 
-0.1145185976226804 -0.1739086358850546 0.1921053185794716 0.1109948293830788 0.04248257177949355 
-0.08868784216489391 -0.2033603937680931 0.199945129800267 0.03018354221605905 0.05752468815906645 
0.05516308484820465 0.1840810537326161 0.07434432243285574 -0.09397904712477297 -0.1800189188140818 
0.1450481450642626 0.2289738618101101 -0.08087368157977549 -0.1566259457941046 -0.1175864126506214 
0.08347764920232989 0.07642969557948295 0.1037522399764366 -0.03741113036540739 -0.1803357522633682 
-0.07101174974017492 -0.1818351979889497 0.2352902696703064 0.1440644806522867 -0.09691009058110302 
0.1192106538016693 0.1782383065832251 -0.005811164015900487 -0.1119279811985105 -0.1519726966727621 
0.1492762920195761 0.02354449319126306 0.08103944950698011 -0.08282721868231153 -0.1338269385593855 
0.1517806501810571 0.2722241732501267 -0.2177845173705275 -0.1524760062755557 -0.1136251597781756 
0.007965579733271475 -0.2255061731373056 0.2755730921715512 0.05562751554592552 -0.02986960574367341 
-0.07202506093024816 -0.1537170692909684 0.1811533762415538 0.06751683003885779 -0.007603708102203821 
0.09846360855888465 0.2061931468748413 0.01483211790005364 -0.09549429605285711 -0.1768994709363724 
0.1306139391563789 0.2614804428764154 -0.04755507931137379 -0.1634659944627241 -0.125970022452415 
0.05477395177012017 0.08825817472713933 0.1542703755364683 -0.0907490423620155 -0.1746021052818813 
-0.133697528462358 -0.294625822240896 0.3473392869281481 0.1193461417514281 -0.09352085775576907 
-0.03184403149980119 0.06039399548319369 0.005715383389473425 -0.03429527023292244 -0.03291003498690527 
-0.04860154426091388 0.051386818346594 0.03951522374611725 -0.0006399675385381956 -0.03111007710859291 
-0.003992680460560763 0.05349997173915357 -0.05381279052911835 -0.04477310086552062 -0.03119863972845039 
-0.1503810067607438 0.002662101630375942 0.3032873270330522 0.1398965914587402 -0.005389407861386577 
-0.08185669427402219 -0.01467491345080866 0.126794156818228 0.02095887107491525 0.02713958340962631 
-0.04872150649801219 0.05430762193630604 0.04430859394677299 -0.04424221074387319 -0.03882828343623682 
-0.02332492748151463 0.07757456737018686 -0.01323373717674193 -0.06357582624625743 -0.0221556363200737 
-0.0468666673408342 0.05453411767117834 0.03212804079324125 -0.009659446686591973 -0.0396216918909983 
-0.1114830758451482 -0.08512526988732444 0.2009157177177788 0.2273761037850507 -0.08387016668542915 
0.1458080535977707 0.04079946301486596 0.1542126857151337 -0.1345180222003106 -0.1846017884402609 
-0.02051282948135141 -0.09108218632171329 0.2459323743444924 -0.1111184714903535 -0.09199094319963529 
-0.1017060626746223 0.01078465489665928 0.1322715442419051 -0.0541806686381994 -0.03089902269146649 
-0.01784777530675964 -0.09233607248209613 0.2446298102044038 -0.1107845501773482 -0.0920902832126437 
-0.008786825606436184 -0.1589704110205801 0.1886344167792668 -0.1367535782323502 -0.05521817466911954 
0.1470256080141509 0.04731654225339844 0.05512746512402365 -0.07205224292488857 -0.09871375285626388 
-0.3028866092122524 0.05496612474671927 0.3603043234191087 0.05789785180359375 -0.1141543242013657 
0.04063043522423297 0.2660269431480597 0.07386687633976005 -0.1715003700530648 -0.1976108058194765 
0.1513319618534718 0.2594829521357098 -0.05227174814458668 -0.2008384771465251 -0.1663450718251855 
0.01712114590826805 -0.07079991219005623 -0.025174592380603 -0.05912001324492648 0.07229591446193948 
0.03812069653246122 -0.1983977153056983 -0.0697742970120972 -0.03488665020845752 0.07359364051487688 
-0.005846716161681906 0.06067531635333025 0.06110320096229708 -0.1377318155062608 0.02332041187926761 
0.03813467244638772 -0.1994657906641408 -0.07129696231853355 -0.03164325141593077 0.0729295462208806 
-0.05023247252325276 -0.07414051095874533 0.02502389211082142 0.008667078326509977 0.01543690838646912 
-0.07879170595726848 0.132304871187528 0.1474355777872607 -0.08047794187987996 -0.003428483055630714 
-0.1394588896615748 0.1331562019470243 0.0983403656649119 0.005909506763507858 0.01379221726210292 
0.08067356807608539 -0.02728457270309054 -0.0827170390509131 -0.1119172469345254 0.1506199206994557 
0.140667186356375 -0.07777248303786508 -0.1298610253144103 -0.1296747890962883 0.1664845715676059 
-0.02517941379396644 -0.1815144614457045 -0.01913160681897626 0.1424283948280769 0.02179320929505267 
0.08782009998829801 0.02157311907488756 -0.08986805707944491 0.04725543172601126 -0.08608383232999875 
-0.1924801230240895 -0.10666246265607 0.1892270673762192 0.07919774858760135 -0.001459250107090679 
0.1557308904466663 0.08421312869834982 -0.200568630579807 -0.02394715935704663 -0.05447534938353474 
0.003696039830558788 0.03825703241591501 -0.04330920927354208 -0.08504985092902698 -0.007169461373122929 
-0.03456097454459761 -0.2140605920283108 -0.006583894298408427 -0.01001271302938835 0.1395408981387974 
-0.01536166159916791 -0.3529446256694129 -0.1530673646939882 0.249706216885896 0.1310198377597874 
-0.09015298531522468 0.03754072741538299 0.1844200865551503 -0.1267958307902606 -0.0372452862831028 
-0.06270978167635048 0.3760922092036603 0.2383235855042902 -0.3399741393574841 -0.152715398816716 
-0.3617281307430402 -0.06612778636202837 0.1245764292443438 0.005673273115442294 0.1871171881610622 
-0.04792219150398786 0.09901155180362209 -0.07629070517328082 -0.03755599379202077 0.02478770731927304 
-0.1236787627581669 0.0594872787018593 0.140301889659119 -0.04729307190337903 -0.0483492910809607 
0.006972728771467261 0.05088818591549914 -0.131847862675592 -0.01350918315256223 0.03535459030675547 
-0.004756829854895506 0.02841992609306024 -0.1273270502857716 -0.0127066962059167 0.04766652153812612 
-0.2234688292931488 -0.1490000102338427 -0.02058636631977406 0.1207689934789189 0.1973559885062482 
0.003458726076297967 -0.4314714690655002 -0.264581755968576 0.3264458783443906 0.1013568260919066 
-0.380185564784715 0.1974299607545984 0.2206934071233183 -0.2125629941293821 0.2303612803235345 
-0.266539322517156 0.4628741005161137 0.2979562533136035 -0.3938463204364134 0.07503366565087967 
0.119099273651547 -0.05757940529712492 -0.1679173840917784 0.03088652819562238 0.06723787566943108 
-0.1654213989171472 -0.0387434738386759 0.04261136287905692 0.01102489865150812 0.1362134800517814 
-0.0825239706166562 0.2674573806798289 -0.3425545099271061 -0.1981131378463826 0.1424159375769564 
-0.1145186295866299 -0.1739086891469269 0.192105283711322 0.1109948968467411 0.04248254346718496 
-0.08871163908670326 -0.2033821555134025 0.2000049056287327 0.03024338459422315 0.05751320736640432 
0.06704860924138495 -0.1200229398063571 0.04736757467284892 0.1253225532967234 -0.1577469254330088 
0.2255329510391743 0.1210775672723839 -0.491443889845373 -0.1780655114774799 0.1894956187469949 
0.04174287345599071 -0.1373934252556178 0.04318714336908528 0.07216072431264416 -0.01100988844192525 
-0.07101141862557618 -0.1818355452528949 0.2352899420761381 0.1440641695501604 -0.09690975130114873 
0.1930244426568734 0.04516164121800177 -0.221919777252813 -0.08445902229836716 0.02353424290955596 
0.1181677448675603 -0.1458055867858928 0.02241576881586869 -0.006184673687722798 0.01647589840909439 
0.146212646097625 0.179371231366009 -0.49093865272243 -0.1177830694432132 0.07520550727502361 
0.007965642289047763 -0.2255061980087301 0.2755729664547554 0.05562766271976706 -0.02986959625554336 
-0.07202765467524573 -0.1537232932617548 0.1811596978592701 0.06752271734653773 -0.007605535868761413 
0.08471065191047231 0.08809492157569204 -0.1384758615351084 -0.02961415640739232 -0.02856147987249341 
0.1478374358016214 0.1989514422095641 -0.2473264112438658 -0.1626429686981615 0.06235096656571584 
0.01362169625620472 -0.1346503566314652 0.1735887619923269 -0.02077478506199685 -0.03982146783042134 
-0.1336976765242598 -0.2946261895338563 0.3473397307674585 0.1193462873880224 -0.09352084488071885 
0.1467299650407163 -0.07505348073727723 -0.1789864605666205 -0.003068565972306807 0.1020777371539146 
-0.0005638939094339074 -0.04828959315867473 0.03766219140836778 0.09941363365625817 0.04028505103538362 
0.2612345499659386 -0.09020217109332497 -0.5068478564316459 -0.06876773327906362 0.08732552926220748 
-0.1503811678455113 0.002662091936082262 0.3032876651676873 0.1398966374049796 -0.005389441113069353 
-0.08184336261959481 -0.01468310235286288 0.1267949008970629 0.02095475692734413 0.02713727178783543 
0.003558796593332764 -0.09359884436494698 0.09956129705517454 -0.07755728646475613 0.0421619123015622 
0.2018687102183667 0.05740003988484648 -0.3361059192559217 -0.2250399633731652 0.1813628697671877 
0.005755905270995762 -0.04373948236818472 0.01620465036317324 0.0805263253685887 0.01550445199812927 
-0.1114832525444594 -0.08512540645310944 0.2009160343882116 0.227376464217125 -0.08387022464714596 
0.05694277064223834 0.1948118151858434 0.07679634620631764 -0.09837532074966975 -0.1868630133472939 
0.04509682928713407 0.1325416465806185 0.1531317459855992 -0.1288985558539957 -0.1746108682404336 
0.05415926750376693 0.202086627103172 0.04635001375276987 -0.1088445795136545 -0.1367302541547766 
-0.008906553056289554 -0.07669744874884178 0.1974971607304986 -0.06918634595605143 -0.1060529472256796 
0.02818458740487838 -0.1361555556311961 0.1849276221619021 -0.1364547702852948 -0.0715066407961152 
0.04035489954756411 0.1984609657673991 0.08209174641105733 -0.09023632224792526 -0.1905995505216522 
0.03405404035661692 0.2023396291558624 0.07263681982606233 -0.08940626615258353 -0.1802606867580553 
0.06911857782783334 0.1966137825258901 0.06658118854431455 -0.100588832345824 -0.1945282787210879 
0.1961136721220801 0.02241857447907196 -0.02861967437044616 -0.08682676643427766 -0.1230796093127488 
0.01762100552705274 -0.1623536565372805 -0.2173289625530785 -0.2156985372698788 0.3498309236164264 
0.234498051524844 0.1331255403185194 -0.1903120964603263 -0.02524257258139344 -0.04721948999639013 
-0.2677711542175966 -0.06291713911415045 0.05332002995316119 -0.2391531319851236 0.3059308093018768 
0.2815979849354369 0.1409919730351147 -0.1962192483454999 0.03234999081369386 -0.1175271062760194 
0.2668275905697165 0.02050604408593723 -0.2806704345763016 -0.02091777367938051 -0.003757565422867872 
-0.1031691468393872 -0.1899944928861512 -0.134241991318562 -0.3156487559662949 0.4735037745369908 
-0.002474079718348465 -0.1187742312987002 -0.1631108890022088 -0.3122975679011241 0.3585278702196298 
-0.02794286526882714 -0.1493229219412255 -0.262217617367531 0.02401507519543147 0.2726084282715064 
-0.02851503376211775 -0.09734320170138705 -0.1969183281910748 0.1627858199309961 0.1162900608682812 
-0.0251794090967709 -0.1815145387284993 -0.01913179731090197 0.1424284469290321 0.02179319782581438 
0.08782013046141289 0.02157383698626776 -0.08986861005709215 0.04725572717703064 -0.08608404501273706 
-0.1924801748197554 -0.1066623651394275 0.1892272236029315 0.07919767450949415 -0.001459295728584485 
0.1557310165715335 0.08421355143484271 -0.200569141849289 -0.02394696585818023 -0.05447545996362924 
0.003696119474833693 0.03825696760966406 -0.04330933342628004 -0.08504992501134541 -0.007169399719597533 
-0.03334419819656054 -0.2151806388419258 -0.008565967327923757 -0.008928252122605469 0.1393969275254719 
-0.0153620861107889 -0.3529460992209674 -0.1530635449275224 0.2497056776423313 0.131020640732701 
-0.0884709241609212 0.05113342520072569 0.1712182196314959 -0.1189061347240205 -0.04642513785955919 
-0.06151144610874946 0.3857724941523791 0.22891801677506 -0.3343543269783757 -0.1592531041405288 
-0.3617284248542263 -0.06612780270706738 0.1245768177044515 0.005673617463267557 0.1871168859223101 
-0.04792225215492285 0.09901131357273837 -0.07629059142496918 -0.03755609322711457 0.02478781297683276 
-0.1236788378092176 0.059487940692363 0.1403010386609506 -0.04729287077252943 -0.04834925859001218 
0.006972737482499021 0.05088772636113104 -0.1318474773735453 -0.01350932881890051 0.03535465202981009 
-0.004756808098466607 0.02841996891955346 -0.1273270041220267 -0.01270670980474077 0.04766651578529921 
-0.2234797748186024 -0.1489971081837031 -0.02057215278519881 0.1207742919293566 0.1973520161717509 
0.003467714098961311 -0.4314774269723662 -0.2645914389998204 0.3264496333161658 0.1013558541103144 
-0.3800749942524361 0.1986415412221805 0.2207291184806131 -0.2122871677264183 0.2301328366566301 
-0.2664718699739081 0.4636710002848641 0.2979847961241467 -0.3936664278862647 0.07488378257092244 
0.03809048644831738 0.03495008575909949 -0.2032350440446678 -0.1911750967453894 0.1787932142406514 
-0.2322092680568535 0.1056507766882581 -0.05406463647036091 -0.09567205725378451 0.1575766847045728 
0.02188966419379615 0.5349550121731003 -0.6391183669869583 -0.5671476026930243 0.2298506305288435 
-0.4629677778522347 0.1945069803476783 0.1696388513774866 0.21163171852924 -0.1241665653365707 
-0.01442013157468135 0.2559594851342359 -0.02671419806421686 0.2251930769560669 -0.2961573776588552 
0.1260030296594427 0.01921905502487407 0.1681756054714694 -0.1421627317926881 -0.1318455499473317 
0.1854303810820609 0.02483245182630523 -0.06538918214108407 0.04994552926241456 -0.1423381117980741 
0.06565034136751652 0.1307428556206605 -0.001056692929060946 0.05135033040280349 -0.1689494493759286 
0.2932999747609358 0.1423071629372673 -0.2044042468207539 -0.1750758116715559 -0.004201616477969052 
0.1362188850041413 -0.02943713531736833 -0.07293438295487695 0.1328710260197074 -0.1675709353471489 
-0.09311067680547734 0.1379053201086172 -0.1093097957090199 0.1049233171700714 -0.08765780159908929 
-0.1358885211393177 0.07864329269824971 -0.009294366229354215 -0.0469575218081121 0.03057599755254895 
-0.1537651215982504 -0.2289788104075678 0.2424906554544313 0.1850432975452173 -0.0879865236481584 
0.1000444875812103 0.2410520676099443 -0.2831887693010998 -0.1939511402148251 0.08641308379340061 
-0.1418549672003044 0.1676667294790136 0.0428035270675081 0.1859537803961144 -0.1199410454017934 
-0.1900566258522042 0.2097522460142089 -0.04257379268003453 0.3134535486018202 -0.1831534195962762 
-0.2155685987499698 0.3409928182598972 -0.1448583525071818 0.2476561497342713 -0.1566281183744349 
-0.1301552455667904 0.1548357408688674 0.08378440045846007 0.23751042814006 -0.2344179613535327 
0.1742099827133779 -0.3294994000988157 0.2135487579872214 -0.1623096264082736 0.0272152288650607 
-0.07283230465035276 0.2211575586004844 -0.100247215707941 0.2422986807966828 -0.1884411180996751 
-0.1358885211393177 0.07864329269824971 -0.009294366229354215 -0.0469575218081121 0.03057599755254895 
0.002810750927560876 0.3514406848419141 -0.2883819643075801 0.06237161443796956 -0.1218943568535711 
-0.08284613830773718 -0.315354607150703 0.2388236446211334 -0.1001438369564607 0.1399747952301741 
-0.08212039984618756 -0.1788674573386643 0.208301516576393 -0.2138878760799163 0.1104240204493229 
-0.03489102992745541 0.2174092999340337 -0.04776745596767615 0.1290005991701681 -0.1509774751339278 
-0.04905800179199701 0.1415144493700959 -0.08920790472573586 0.318241408115289 -0.2283344870723934 
-0.0975760669098257 0.2262062612410963 0.01114482584568317 0.2262948648907707 -0.1993101210538201 
-0.02339027986663885 -0.009953217537288374 0.08072557430866525 -0.279991928545475 0.1631874646540463 
-0.33392587034254 0.3545257362894193 -0.09212549805113711 0.3300420552008658 -0.1525043493140618 
-0.03190351116923658 -0.1181803998188505 -0.02953601338104694 0.1909818508681888 -0.001352956913986261 
-0.1659831103768209 0.1370017079683606 0.008795553331447286 0.07102939849279406 -0.01635882707651511 
0.1457426962173671 -0.1746580662234105 -0.07929887808903115 -0.01948765146492018 0.01636908023814494 
0.2405854814683178 -0.2773718281520454 -0.008970418660956429 -0.01687892685378781 0.02599353741810008 
-0.2345236156432907 0.1529052085573856 -0.04399312483407052 0.3763977406918487 -0.1008443251564292 
-0.2154166607210391 0.2554101549098348 -0.1192535792335263 0.2654438878866712 -0.179737093362298 
-0.2483235992920828 0.2793503194218964 0.01121436001589778 0.2824733412698212 -0.1893152274816354 
0.05934707219092558 -0.08523953022697972 0.09328982322073541 -0.1148976414611073 0.07173210729302784 
0.1124907518280911 0.2464829008150607 0.07568312029464906 -0.1838376390580378 -0.1413180628686628 
0.06325044769634816 0.07200506034956798 -0.02659861158250464 -0.06932530890304386 0.01949765351872367 
0.1139405746126455 -0.1204152411610064 0.03531188133214543 -0.0160931345237227 -0.02038214906942738 
0.0563449581200851 0.07930295397075951 -0.02873872566641502 -0.0683499673876901 0.02073293531732142 
0.1037013298675993 0.1348412581652056 -0.0343260770611817 -0.1332455331300442 -0.02001823299232843 
0.01402517269910615 0.1910304007991153 0.1811616165347538 -0.1044723034420479 -0.1857113544471908 
-0.1024218244304985 0.1150693149075306 0.01190048307980677 -0.01625465580220255 -0.1077321301533941 
0.09685887837925905 0.2842226411371135 0.02117388250769631 -0.1654511933187781 -0.1685723942342735 
0.1513275623364568 0.2222202397113143 0.007229384386273549 -0.1582431965842235 -0.1087942750412979 
0.2487859133416643 -0.06068652023777144 0.01338379554519166 -0.09296701297326979 -0.08544938715957462 
0.09500303767515696 -0.146319082325176 -0.1035798906286177 0.002146670508462204 0.05152691342298943 
0.1143059271489423 -0.07784620342123783 0.05789510909035973 -0.04921123237191624 -0.01604561599336765 
0.08769250565419215 -0.1414048455504711 -0.1074148834281605 0.005322984155188853 0.05260401051080155 
0.1604040278850112 -0.2360924257134613 0.1138692367482438 -0.09189134951678098 0.01260131070849841 
0.2039167038213873 0.1340986635160757 -0.06701994022026189 -0.02804075987413567 -0.1977119269868327 
-0.01922205011177588 0.1242954618190241 -0.12614836321235 0.04247780707274389 -0.09135208356724753 
0.1871546254113196 0.004399374958622332 -0.06752491363163175 -0.2081663206659601 -0.006824015468790558 
0.2178803908886683 -0.03748823158654271 -0.03360156301364383 -0.249905472006393 0.02359378047480748 
0.1139257095017785 -0.02289842084004916 -0.1649375415385461 0.09936178866282584 -0.03293036322202136 
-0.1036763740566355 -0.1411780722628493 -0.076183456571274 0.1158253061467634 0.05949787859293115 
0.02506166833701539 0.1021924478717779 0.101794510373397 -0.1547919815744082 -0.04240452366289894 
-0.1035790966586346 -0.1422061020808404 -0.0786122983136236 0.1183488371923907 0.05998179699070085 
-0.08784757105265592 -0.06784103536570289 -0.01621983336218941 0.07840620660410619 0.0271282117337886 
0.1624578474749641 0.09902620047912027 -0.02405768481347259 0.0192695174110712 -0.1591660104478382 
0.1569553407164807 0.1119730746881192 -0.2372651202506834 -0.01483804025173321 -0.1165132779728082 
0.157414468819103 -0.09995484875495846 -0.1134744999471976 -0.05443849296353265 0.08008180646542135 
0.1066712698572387 -0.1892931529073214 -0.006222750225588321 -0.05973565266428651 0.1671588471565278 
0.05919158684804422 -0.01944584292767503 -0.01270161630521524 -0.06022431530092547 0.07365856235051801 
-0.01797380103193039 0.07603569812430447 0.0516172514723189 0.01763429356517979 0.05095371400581987 
0.1031369106078148 -0.2170664270034588 0.06903924244491477 -0.03571966214135074 -0.02117441787438074 
-0.07512234735718576 0.1662447410155766 -0.03848481348771194 0.0206150462886675 0.04095985619939787 
-0.04482918530168495 0.09448496632793464 0.05000106018088029 0.02630108454634404 0.009663558648765454 
0.1238230418313074 -0.05181132028754458 -0.164970364524408 -0.1091165151023588 0.0567910244480755 
-0.1322267391530974 -0.05030992064089501 -0.09170540048703064 -0.04213860294383156 0.1905562773480478 
0.1841431828759267 0.1989927294132179 0.04894002549932638 -0.09717825793562558 -0.1549572301636214 
0.1675909285051826 0.150694588455664 0.04465985425948471 -0.04033840226599544 -0.1955336744592275 
0.00793915040766164 -0.01301452241822446 0.07314545156091741 0.0846485197549843 -1.064589397971501e-05 
-0.01540797298922957 0.07612323659742808 0.04530044153537426 0.01798566621655259 0.05076640028852603 
-0.2910912848304969 0.03482815361596524 0.04341950311523975 -0.09862944585341299 0.2930736425453263 
0.0248223881326435 0.06997140117513126 0.02916857836418754 0.02956525577247457 0.00605680331235269 
-0.03358193998564982 0.08526211745491996 0.07121135431853721 0.03521631358225891 0.001878772317875942 
0.2325694876570735 0.04906103502421925 -0.1153757305301505 0.01659377306083246 -0.06888477972191688 
0.04637879012345507 -0.07332139751763264 -0.05969773894783085 -0.08568984341141143 0.04050631147711196 
0.03911653356661794 -0.187197772683116 0.09172697617464144 0.1981708844750024 -0.01741903121853244 
0.02162943567883425 -0.1664894752849519 0.1125567521749783 0.2375514070124464 -0.03340159238325213 
-0.0123728312221028 -0.0025764742521516 -0.1195813878095305 -0.1106528798709134 0.1078079214038304 
0.1976993151880077 -0.2096817281215828 0.08113453857248111 0.0125266959144995 0.01952488588573012 
0.07835791503233766 -0.1217093037659417 0.0119191166866681 -0.06825819557007919 -0.02212843245452906 
-0.0408715233740302 0.07607923876389347 -0.05200897878935882 0.05576821498148238 0.02717944862236601 
-0.05573336890805568 0.08890045873476192 0.03449094514904406 -0.0210116710067841 0.002644899568193816 
-0.03839617684495607 -0.05845452468291933 -0.09546162799396979 -0.06852868300597588 0.22142352973437 
-0.3318175088645545 0.08081938071669888 0.04289570489588279 -0.05040843140186353 0.07424505615643276 
0.02660819757810726 0.04815434712073278 0.07989938588054719 -0.2099233914083898 0.1061974497821881 
0.2924829725996984 -0.04112151019075205 -0.04196278682338404 -0.05402741876200334 -0.02097045606670109 
-0.02460435538434441 -0.007632673590509148 -0.06341615209600043 -0.06243021703545856 0.01627627809417177 
0.00159523283151124 0.06303935511718464 -0.1798162496843553 0.0001801078826921404 0.04665043646886652 
0.002631880646771317 -0.0835556114600064 0.1720734546473297 0.0154228812792016 -0.1194112183342598 
-0.00914818734976384 0.08347740394519876 -0.2174510545818645 -0.01311684450082821 0.08011587260582589 
-0.1258136612384757 0.1382130516761891 -0.04190501172316472 -0.02577155656061785 0.04417839589018147 
0.01845427948260399 0.2031655339229639 -0.3920324849999761 -0.08066599461737492 0.1456470615803684 
-0.1833012151022585 -0.06036289337886681 -0.06225747888418232 -0.06716358609928176 0.1953744391712332 
-0.2733896063873906 0.03826698546189627 0.1841903117585767 0.1951296182688124 -0.02410481068009887 
-0.05817479476776708 0.06593743386872884 0.1009955533040594 0.1379195998333413 -0.1267280493905327 
-0.1380869650999939 0.07150656557920809 0.03273922008983706 0.04191191227267503 0.04401512088406898 
-0.1188386282431205 -0.01172902262276321 -0.04830762029623732 0.03005220016972136 -0.01149139966748564 
-0.1491994016869481 0.01850650002881422 0.06796356618834555 -0.2323037129812929 0.1809769197532469 
-0.1014065947659945 -0.01297139394705718 -0.06725301523693594 0.06471104998957417 -0.03966024879786416 
-0.1113087244384616 0.1231639140895713 -0.01138391527640572 -0.03262644908208074 -0.02052460171136309 
-0.2500004218978062 0.1600706000965993 0.177738052694915 0.06061321135431262 -0.02880218150969633 
-0.08419265205452162 0.4206519055075611 -0.09832962788510979 -0.325673392079778 0.05872436900214183 
-0.05323192550901119 -0.175727546345938 0.1662526857859865 -0.1828915413184426 0.1725101889971881 
-0.0361465189143478 -0.256902823424465 0.1759029413053031 -0.1111522021810297 0.1552290205387284 
0.0001087591921956586 -0.08520288282505323 -0.01441612862640186 -0.07382025737261431 0.0004399598128895024 
-0.2385010956114579 -0.192749529569321 0.2280138977918652 0.299449890797253 0.008628590480154401 
-0.01338679703822797 -0.02538252047360689 0.1061864663422935 0.01450453787579272 -0.1128121233952668 
-0.04873675673027915 0.007204395358301216 -0.1236269482912757 0.02239237572848409 0.1084090584281914 
-0.1388342188798645 0.146279555952907 -0.03764192602297337 -0.01675825245269004 0.08087394203175613 
-0.2733068052583602 0.02493465417609213 -0.0284941320620696 0.04467419440261571 0.1036312620799046 
-0.06748052572749431 0.08837418675963775 -0.06144743901479121 -0.06700052702073067 -0.02363117771265616 
-0.1274799259542668 -0.143808776442625 0.07135305347981129 0.01371069383527258 0.171556737918488 
0.01878193637039406 -0.1376328149003192 0.0403174823545569 0.06985606824275857 0.08446646973804295 
-0.04082176292440585 0.8455492005008961 -0.4467824014221175 -0.1059602058722507 -0.09521217069817126 
-0.2559337326149816 -0.2101706057847665 -0.04443459212776862 0.09948697007741614 0.1835137400959165 
0.09672630091225519 -0.04039641906235298 -0.002334634760232538 -0.08850701148746458 0.02576832434154527 
-0.05028550758613747 -0.0787278093989057 0.1919322880129946 -0.1834691908255784 0.05719380479546182 
0.2640295192888598 0.1218068629784108 -0.2066103240824539 -0.4036648228395244 0.07505384828310652 
-0.229907569158892 -0.1272513171237302 0.2340291549490667 0.158147131241321 -0.01654559651902805 
-0.3516726836137233 -0.1690183663788737 0.2708348223564504 0.01653675217563194 0.08045777005408669 
0.1260461799344001 -0.0009316713096903344 -0.09332154749261384 -0.04990637281946567 0.01933970832765838 
0.1559098537162301 -0.0421518240701225 -0.1023187397452237 0.06591979675102996 -0.03732240401912479 
0.04445487128990923 -0.1101460229080687 0.01199912249651681 -0.05848271574075901 0.066570442596669 
-0.1875443630006201 -0.08548490505016232 0.1395297900172165 -0.1952331547284268 0.1537140804946895 
0.1243959230305504 -0.01971357324209118 -0.01451036776861678 -0.1202475033858893 0.03811855516778689 
-0.04717256887007897 -0.1064615283398156 0.1979772293845386 -0.1825738949148232 0.06181715679197729 
0.07690144952430231 0.24984956618994 -0.03410198811801009 -0.2983292630639681 0.05867653380492797 
-0.1127741847937178 -0.2799673181930635 0.1246813441276622 0.1248917257687861 -0.00921417449770893 
-0.02422373498380823 -0.3287360365716222 0.05973720882323053 0.04649732453565394 0.02814735366888762 
0.1683894023372746 0.06566746702757167 -0.1489622153699743 0.03323668148026404 -0.02452929489299299 
0.1229036651388682 -0.01957124876659409 -0.04078655251780947 0.0504273853133276 -0.01825933126178365 
0.06584486089431484 -0.2093815294290178 0.1495916288685538 -0.1237685163709863 0.05877195609499814 
-0.06973115708501615 -0.1756749156658841 0.1630142087424425 -0.176377881706001 0.0750336386561419 
0.1259117403056502 -0.07119409706513559 -0.02266283312493478 -0.03955346331973932 0.04829877006645027 
-0.03894738287169655 -0.1048366779179171 0.1191451379237865 -0.09761286328045778 0.09251224750012312 
0.2640295192888598 0.1218068629784108 -0.2066103240824539 -0.4036648228395244 0.07505384828310652 
-0.2452008677881584 -0.1841812177673398 0.2472375695033268 0.2153367269635486 0.0269496955936846 
-0.3268213249526454 -0.1707100437947765 0.1918814270371734 0.2012449625086087 0.08926521224228967 
0.003871915228748403 -0.1033500026317386 0.06670490757585808 0.1752106619782187 -0.03021243569605091 
0.09674111740517544 -0.04031857438044836 -0.05654175110058065 0.1145302851027445 -0.06397032948778707 
0.06544948791358607 -0.08579418359005986 -0.06588796558945037 0.00343663420306377 0.07002436885465287 
-0.03652937778376163 -0.05838856297307287 -0.04153256217580392 -0.1366906035486136 0.1669415601022456 
-0.05388850708598213 0.1035512278282048 -0.04559407860937174 -0.1470499217022696 0.03732805459166646 
0.05205498260748534 -0.09268859769981651 -0.0827454984887014 -0.09735766266735368 0.06996450600982618 
0.1173009462816975 0.1438469126345076 -0.1168240292667282 -0.5266201476219534 0.1413319393303369 
-0.1086521925089826 -0.2046521266925133 0.01763655346345617 0.4896156950532944 -0.1056087534096617 
-0.064644220490538 -0.320020053931164 -0.02709985004468561 0.4302333506605247 0.0007781469356094688 
-0.1105344175084927 0.06240111075390584 0.01070332948352141 0.0708537796315675 -0.01070769209953597 
-0.01089777325714379 0.1045741922334119 -0.01534849741022895 -0.2078269080192793 0.01573999539402706 
-0.08353610399503196 0.01011548694589031 -0.03198955977340857 -0.05380271694424184 0.04479803333813064 
-0.1015770617246528 -0.1119843777344845 -0.04707569025751852 0.1864125886130392 0.03723281128096897 
-0.07449454129706143 0.122647021364099 0.01061180141634848 -0.1175454206118326 -0.001211757767359047 
0.01244522108658985 -0.07884522082813265 -0.05762079975221305 -0.09065934421913266 0.07047122680175545 
-0.1474332158542804 0.2568044520589495 0.1376495413702209 -0.4963238188149409 0.07838462076107919 
0.1318280293039713 -0.2730843912626281 -0.2079823508399611 0.4186214491276723 -0.04039015323189854 
0.2136352623802885 -0.2756712847326707 -0.2483848515312372 0.2538159817702758 0.03349251341920836 
-0.04734107347459018 0.1223340297405457 -0.00610160465499367 -0.00327195497792062 -0.01380095844938636 
-0.05783906982038974 -0.04388320244996341 0.1447465095860127 -0.04776793650676169 -0.03401869976901413 
0.07721618078697359 0.108617663011139 -0.2395204509530853 -0.1262003350390957 0.03080055600186964 
0.1638419273172926 0.2038666628532083 -0.5388925582851274 -0.08605699700128648 0.08680966495783042 
0.01130023680936717 0.0180986491896134 -0.05270643365010784 -0.1095159103117631 0.05475620956612483 
-0.0962225844432498 -0.1080740079602429 0.127504308501177 -0.02646694799661015 0.06487808390387667 
0.1173009462816975 0.1438469126345076 -0.1168240292667282 -0.5266201476219534 0.1413319393303369 
-0.2054736099560004 -0.2161423192085639 0.1713108646878008 0.5104208044047694 -0.09765339207444307 
-0.06901582008023611 -0.2653326133075506 0.02077743761477626 0.4915674743762412 -0.08783120106089151 
0.04561836885683513 -0.03386342417053208 -0.02971527871279788 0.0006399394921658332 0.02471621096601211 
0.1932310549699725 -0.007282365707600816 -0.1833880638591321 -0.398699372013339 0.1268514906273108 
-0.02640394943536786 -0.05375000797320514 -0.07384736414290051 0.1057009113867659 0.01726648827145873 
-0.1873559940171213 -0.03253618143636965 0.05754170572226615 0.4043423493233428 -0.08787732593132422 
0.1989718787989488 -0.0613802953618981 -0.14679328880204 -0.1016114930438997 0.04158054552083913 
0.2712499446077953 -0.2775877936685255 -0.08639517367981187 0.09423220004316085 -0.05865626092379932 
-0.1975854946630417 -0.009970300574905187 -0.1409825477802156 0.001246396596836246 0.1572005689536441 
0.2912380101763106 -0.1521122627081995 0.008482787725605793 0.0471105481621712 -0.1463707707242876 
0.1699386092943261 -0.3115271328731007 0.1221969738781647 0.05003087460636849 -0.09955947382069645 
0.1888988557845365 -0.1412409055448033 -0.03889908703040931 -0.1532405901675704 0.02315473507116625 
0.1772700472748857 0.1069497588256992 -0.304251716720546 -0.1213909320565237 0.05971378448373957 
0.2865624914884883 -0.2461866555486209 0.01839280371329799 0.006288077705843507 -0.06274524382018769 
-0.007047739039526157 -0.243427404939522 0.2609491560458804 0.109798987622349 -0.09639271850514058 
0.4094564196038796 -0.1428268974837464 -0.1762860223768541 -0.05159784452151775 -0.0732437990998521 
0.2732625626418549 -0.2765528695815251 -0.09957471882240629 0.09716712522077486 -0.05837669991904639 
0.04296194554475675 0.2314188921518361 -0.2668698790488169 -0.1942999457198446 0.06471133106264144 
0.1134929243028013 -0.3142946089811134 0.09483003594837498 0.1851730754486903 -0.08022292930730926 
-0.01024732285221372 -0.2225539765071158 0.1776793993346343 0.06016023988148755 -0.04489084737296579 
0.240186322976815 -0.1639971277451486 0.01968125987578333 -0.07021189465224564 -0.104036089858647 
0.2422027787339902 0.04467845933878361 -0.1883793010434849 -0.1422629052877064 -0.01662414371766796 
0.3305962376803183 -0.2629918757684568 -0.008651514568537355 0.1356892561723806 -0.1398559395950413 
-0.03639802215896498 -0.1843429950871423 0.1256289723121413 0.1978563206040669 -0.06751366044916192 
0.2147972111113705 -0.1047888279244791 -0.1409322282568466 -0.08528891969042518 0.04050690849726168 
0.2203704197893129 -0.266584147094623 0.05661837045727341 0.120585250054231 -0.03620763314831794 
-0.1977828727078046 -0.008546774672854978 -0.14106782843773 0.0001547423443911053 0.1562058086254622 
0.263846455630047 -0.1714305533498194 0.09502084733850684 0.07582982421134946 -0.1212212041625461 
0.1983983223595928 -0.2268226068859792 0.05483450321131958 0.05035544461033019 -0.09451417883463428 
0.2261745529425309 -0.1361564032094481 -0.077247936633125 -0.1270436574829581 0.04643069103977268 
0.09151123259400536 0.08378276834976206 -0.2312974562451031 -0.09801655453078606 0.05489500574799615 
0.3222387565647982 -0.2970757300683067 0.1192664963315584 0.02246857394813297 -0.06832544518306498 
0.08756512905405275 -0.2287379581295015 0.2330881715167532 0.08926730285715652 -0.08608481117578214 
-0.07017607435747068 0.04175449776230749 0.04985494618192163 -0.1690864050967575 0.04305111405336504 
-0.006528662548180888 0.07018876095330967 0.01255315169066099 -0.2387698884145827 0.08734225202279788 
-0.1440525178575836 0.07352376628808263 0.1685260981808785 -0.5361205257302125 0.1957070450818498 
0.08931856307265916 0.01190589071085955 -0.1332339536160641 0.1783499783837109 -0.06733530149148384 
0.2328259824314128 -0.02549148397892226 -0.1224462262334586 -0.07151654704141484 0.02066858657298673 
0.05779350465014273 -0.01476658505643193 -0.0390626004483553 -0.01800838109350578 -0.04911088949270373 
-0.241036653668371 0.07381323735474257 0.05338902051261655 -0.07982069699770157 0.04930908275894895 
0.07254813517898237 0.002888443578436834 -0.03027318809497927 -0.1236154771955315 0.01365363870792896 
0.2371246926455645 -0.04573162435519092 -0.08943832869722798 -0.06172792349089996 -0.02375032668080014 
-0.03820645618385203 -0.06109624194024444 0.08950892266367128 0.01710338471918587 -0.03855392277921369 
-0.0186540592182995 0.07144697857958911 0.02966358923670845 -0.2355488471326745 0.08746568033141752 
-0.4220724729629854 0.06327444753636294 0.3318693472667504 -0.201695992700851 0.05049933428197436 
0.27816061577857 0.01807339174072858 -0.2435943831750413 -0.04663112426545442 0.03182419140850258 
0.1820257206947731 0.03743213995945209 -0.1028357591320589 -0.2039007517073666 0.0680305479049331 
0.1857000259873757 -0.06549481673859063 -0.1461896715079179 0.09743078169250401 -0.08305155872846522 
-0.03777535244572652 -0.08150483560532765 0.04767832454748808 0.1325988551864656 -0.09050801314981689 
0.05755754071847541 0.005737457717451089 0.05344373067828403 -0.003471251998301735 -0.0871622564007335 
0.07141039888057801 0.07520132558895401 -0.01447740371558595 -0.1134421270960088 -0.00242032394466836 
-0.1044027120420725 -0.07521193548357892 0.06490109206266434 -0.08295544132280648 0.03218274359341954 
-0.142705820178096 -0.0713220278144702 0.1675640470541522 -0.1214548767489336 -0.02863315295529166 
-0.1043498862837683 0.01795801354350551 0.1604025130942173 -0.5548669341068649 0.2550772354790022 
-0.06420610589377812 -0.06435987932729546 0.02137178587552055 0.2248971692480311 -0.176708061469099 
0.2531533640585578 0.01857907357166014 -0.2236618610044484 0.07894550041641521 -0.1010425608317276 
-0.04071221837449698 -0.09261622288676914 -0.01932811783827589 0.1252618262917609 -0.01913762438133645 
-0.2457732338383252 -0.0441017126100795 0.0832113966109719 -0.1376151211804585 0.1056246072480737 
0.1097310811489147 -0.04653766450539264 -0.1802698612370566 0.03328288985517657 -0.01726793651143705 
0.2983068035281373 0.004654543941543863 -0.2627555772298289 0.1400495291492578 -0.1063661721581952 
0.1899485191510247 -0.0149693962828191 -0.04849576089793493 0.03432274271608636 -0.1110330865850115 
-0.04941752632513297 -0.3333676578338928 0.2071052293320936 0.1548506959830321 -0.05960205909961488 
-0.1489327227604382 -0.05730476629228673 -0.01231393300587147 0.09050266281405211 0.09318687995040967 
0.07481280053884104 -0.1443490327742835 0.09192519356763398 0.01058209901783998 -0.1108626673993151 
0.1702709021789743 -0.3007092513000144 0.03192695720999098 -0.03176712953177405 -0.05329341411114744 
0.2692446733466391 0.03068142427734816 -0.03076233188175543 0.05786535183696608 -0.1758416560120073 
0.06942632880521747 0.2102155057677352 -0.08121301494886828 -0.004062530372147849 -0.1067297247983673 
0.4179746562311386 -0.2638883978081428 -0.05717046593903123 0.08061876302417031 -0.1964623922063835 
0.2721977641520784 -0.4867264296487862 0.00378047301254662 0.06572873794200083 -0.04309190323459641 
0.2677394667355255 -0.04466880895415918 -0.01618662654208653 0.04527802350618051 -0.2031168766200453 
-0.05686712233910737 -0.3233126114568893 0.1997437997987056 0.1668177932348011 -0.05831560949298873 
-0.09607666852734305 0.04729332636969604 -0.09242996161161969 0.1210654771521475 -0.06581191729373918 
0.03710658298665847 -0.1991643020374383 0.1383395747238037 -0.02756611128284789 0.02531773662542909 
0.102077014965927 -0.3238072361838953 0.004584587026683302 0.005928998052266949 0.002591897451313732 
0.3772236431528808 -0.087883122115798 -0.05238532042542477 0.06273615375886597 -0.1857060657071365 
0.3105250673576249 0.1661760821439603 -0.07773458345423881 -0.1979795610538009 -0.16338136118049 
0.2367376353920858 -0.2317429067306107 -0.003902515237583365 0.120671768301308 -0.20980036519605 
-0.1169817697419539 -0.4620020738024717 0.04294469478241159 0.3712461275630839 -0.04711529896234263 
0.1234039622136422 0.03107730342184331 0.003147148578689724 -0.05316083832460383 -0.0540642638751993 
0.2223392334928716 -0.3609715177375859 -0.05877821912364407 0.08584960293001453 -0.01897388262886696 
-0.117592865989567 -0.05803000934810865 -0.04538770276912579 0.08768179082706332 0.09304140215103747 
0.241361286354047 -0.2010502101434522 -0.04672336873491761 -0.01990797033431368 -0.08961328779457432 
0.2118584275194115 -0.3193738604486099 0.09315486066471154 -0.08839024213039733 -0.06286905761780423 
0.1618850085667129 0.1061151553223941 0.06587491456272054 -0.07392976616508345 -0.10168338057795 
0.06868091194670008 0.2080725261958083 -0.08623343450716689 -0.09350115954641977 -0.0335931016083805 
0.206155166178226 -0.1219192044675587 0.03326092024125057 0.04102476229606267 -0.1053162150369948 
0.1474104187459224 -0.3597172315489295 0.1141496970052494 0.1440585755958908 -0.08012240912519994 
0.03099927288452576 -0.09857276740500977 -0.05138206209998578 -0.02262848399190256 0.1105697209395944 
0.01356720227680301 -0.09379818631841409 -0.1270794045242483 0.03237332384960043 0.06386966200256788 
-0.1818950742688708 0.09552944791581047 -0.2374143995211984 0.1902329673318245 0.09665213224411565 
0.1207782638358589 -0.1219248021547589 0.03614152197419961 -0.1131322570596736 -0.01999584308178036 
0.1620705906353843 -0.2030776811233278 -0.03474840092748882 -0.1083166580717026 0.01650393500493796 
0.02991748099732615 -0.1126877949830106 0.02726162225093083 -0.05361711934205476 0.09939925133410671 
-0.04924361851054088 -0.0433020202680916 0.02168468497052209 0.0460702929453399 0.08661609184593796 
0.08962916442949002 -0.1449023259059922 -0.02086553968723022 -0.08796633417827449 0.09406841215546746 
0.1528836472601785 -0.131149816717806 -0.06582314501675419 -0.1585629556981637 0.03048324080424841 
0.04690875876099811 -0.0845289541193564 0.008794806094376004 -0.008605111648110297 0.05551392694276597 
0.02231576428935562 -0.1103969057170919 -0.1153471029121613 0.03824241162902678 0.06440355209080058 
-0.1206991109254093 0.1954440211427018 0.01331597500981269 -0.09447342685852368 -0.008656156126327676 
0.08738404134446938 -0.2045776078156802 -0.1269489554504375 0.08377093230909936 0.05205761000454891 
0.06183948408446414 -0.1559492093353023 -0.05616229649393779 -0.09958930682828603 0.08076643278743637 
0.05399605208282621 0.03064430725594404 -0.02602771548756082 -0.03167547928740991 0.0367356061092532 
0.03954768290525383 -0.05893782026998533 0.04654365414083769 0.07406949239501631 -0.02752730414285018 
0.1286224291097746 -0.1491858209186427 -0.05056666259826438 -0.08884588501563759 0.08720843912971697 
0.08291346667626436 -0.08791319575706272 -0.1172942817850958 -0.1592169401248043 0.109765781746701 
0.04748224085802373 -0.1014306890901647 -0.09370506280869562 0.06605524402419262 0.07670083997857119 
-0.06521089979377127 -0.1693749352033209 0.08358657850301973 -0.0319016771350351 0.05257717128202521 
-0.185605045087318 0.0919373439920752 -0.2347089212717943 0.1634468147657475 0.1158972233604797 
0.05102722392589814 -0.1744120383682398 0.1730034412259892 -0.1277240969752372 -0.02914765985116749 
0.07041069539581898 -0.211074718086408 0.09470363580877296 -0.08763628679234017 -0.007604664122588955 
0.0511365781406414 -0.1734997221541399 -0.01936641004273209 0.1410647439948003 0.04802334479389023 
0.02098883723032484 -0.01749913171470464 -0.1563226444990059 0.1906216917049128 0.0552559212615566 
0.1022165663019545 -0.1226627902317966 0.04013918802747334 -0.07448102755116789 0.06579265968657294 
0.0716413795083258 -0.09492728862855346 0.1388272900313436 -0.2246192721558297 0.01766462291903723 
0.02727026963517144 0.05692300480964071 0.025638290908117 0.006307734970201914 -0.06778303684082868 
0.01309464123944326 -0.1967392087326842 0.2422210528847629 0.008093972921716795 -0.05660405512682775 
-0.06208150590310849 0.03170704545969132 0.0666147102575723 0.07985002589746837 -0.08272198102676331 
0.05880020074890775 -0.157377033184035 0.0399295664953592 -0.09593312062668487 0.05082480658477435 
0.01501717700936164 -0.148149651680262 -0.07634174784007448 -0.02934048031239655 0.07156235161947666 
0.02256241209311882 0.1021342938761675 -0.114079521062978 0.0941632061579709 -0.1052580132409464 
0.04214269868441491 0.06735226266367217 0.02509707664153386 -0.02280925729601508 -0.05665430642254256 
0.008085814611038305 0.101714040126709 -0.08172236427453519 -0.04062380934794371 0.01939461498887967 
-0.05065627251476506 0.04013523054624451 -0.1491936753838285 -0.02552472902896933 0.08499772201957212 
0.0004591086318174095 0.1053067359977307 0.06700100500680882 0.005513729379259341 -0.1062193245211162 
0.02285714958966805 -0.2115815898759189 0.2532987947114264 0.008373875179573819 -0.05780396854678826 
0.08847244525477353 0.1096157125428626 -0.01922920627680497 -0.09890442258087243 -0.02769975194699836 
-0.08144379678837552 -0.2568837755632429 0.1685860479788818 0.08738551764738596 -0.01999344890622654 
0.07155965068552103 -0.1318724919343057 -0.0853043625206947 -0.0001098450546931796 0.04819525192176691 
0.06133684163340145 0.2098600505446093 -0.2565541756419356 0.09778382028709427 -0.1078548453922658 
-0.06806040476098428 0.04720069043798606 0.1405504614642686 0.1358061720273057 -0.1371868420839542 
0.005593070935911515 0.08268915027200116 0.02267904385573976 -0.04518934108282387 -0.0387731995560488 
0.0584077893186694 0.03714501630472145 -0.1378447708503694 -0.1724098724287731 0.09196185316649141 
-0.02317151727847301 0.03108071936195626 0.04403167306195178 -0.09525865261858824 0.002120908048522331 
0.1096659182049245 -0.1599366933605419 0.03639729616713709 0.02931403346841931 -0.03038354818156291 
-0.0657096073227724 0.03738390345764254 0.05956257622305863 0.07810418581248174 -0.08251486756673423 
0.1437472827596781 -0.1564667925345665 -0.0921114512668406 -0.07728064156358545 0.06715146066849222 
0.03987824958182035 -0.1517582464198114 -0.08311582723117229 -0.07289927568027134 0.07569939266845346 
-0.09800425506984256 0.0827373389545536 0.05687543661663212 -0.1666515677190804 -0.005693926699268976 
0.009703975832495319 -0.02029527811227637 0.06730203632010068 -0.08072411419175357 0.0163008420085393 
-0.1367697987092347 0.1490543984579737 -0.03941634461625707 -0.1089321457609851 0.04261375550183812 
-0.13651855381595 0.155857385907737 -0.160401157476685 -0.0008423258754055984 0.01374997460389267 
0.1008346502082833 -0.08142246326034611 -0.1146401182011923 0.1279974630167114 -0.04833688230633998 
0.4125527417422247 -0.2108370585798729 -0.360572001332746 0.1104006352646232 -0.003397211106184432 
-0.130119689747571 -0.10345523908934 0.1733525671471342 0.08986258219419777 0.001621146369871179 
0.3130748959624775 -0.04175574623884114 -0.3593368264731397 -0.006185822179296314 -0.003396429743773209 
0.04433868754710427 -0.09881473707161163 -0.0531518698490346 -0.03569489849806179 -0.001919920784682297 
0.09444771558062365 -0.05936722594757274 -0.06881581208144188 0.1084274538319974 -0.05335710610674742 
0.08600998772075973 0.007428271022568338 -0.1438866547467378 0.08493725921030067 -0.04563387050246448 
0.1007578395142621 -0.1111479940988162 -0.06811283032662815 0.0732445578109569 -0.02646731322577756 
0.01388503787932716 -0.1882810406915955 0.09472626156424843 -0.02732381868844292 0.03155460162439713 
0.1190354803113845 -0.04426235286691685 -0.1576551443494028 0.1229043196440055 -0.05095143790385653 
0.4083409469051482 -0.2077670525282512 -0.3607076489848546 0.110006138083391 -0.003217730810099757 
0.1712172263415192 -0.0245869962448392 -0.3095461644542112 0.2484185793883124 -0.06757900235874384 
0.1122595259519841 -0.1017369864312155 -0.02056635004533435 -0.1291550770504962 0.04919616097052538 
0.02635145004776768 -0.1405594111324409 0.03576654596040776 -0.06917271690585695 0.01989842340397407 
0.07076700508920623 0.08649061673640877 -0.132821247995095 0.07856432569728128 -0.03703938095886069 
0.04591696348675919 0.04660176991554904 -0.1653205333609641 0.1517519874660572 -0.05768221506885655 
0.06624792343797582 -0.1254481856191717 -0.08136930637184285 0.1604926170439118 -0.0527046266387213 
0.0211693336997551 -0.225963663402303 0.07170563156888789 0.01594093812755017 0.002115584408832289 
0.09014543028113782 -0.03175987706637608 -0.198309403343658 0.1703730232073388 -0.006406619259637173 
-0.1671517248733578 0.04977736668347363 -0.1510221713757551 0.2346651250986861 -0.02486274592557976 
-0.1223767350379687 -0.1050374977573849 0.1701203538442766 0.08860203227011415 0.001562430178797026 
-0.04202930893849292 0.1014252202581177 -0.2247756452281374 0.08881590894152426 -0.01694616751132759 
-0.1116016239429902 0.06243710182728873 -0.07290860782563463 0.02325417447297628 0.002982373889555995 
0.1767410477343109 0.01552433270675804 -0.326708792750281 0.09990532167554197 0.05162258737215102 
0.2131038697183852 -0.04487088641902905 -0.2373352625642929 0.07410630706258653 0.01669448691974732 
0.07854426258529654 0.03538608151115575 -0.142235956941632 0.03298578665941176 0.01710263901355195 
-0.1968715536452031 0.1051127829314818 0.1142325049035591 -0.06651732549834055 -0.002798090973904783 
-0.06682741220234344 -0.04468283318096894 0.1358711893998538 0.08338028984375172 -0.01709105741068937 
0.09193995645309727 -0.1945345545000678 0.07170336709409889 0.09232720581573454 -0.02929636386461914 
-0.03056308292327166 0.0102269239587771 -0.1224526391365832 0.05913463568808037 0.006877581510092056 
0.05095767844915663 -0.08638440442917694 0.08087990766565875 -0.01131976335288855 -0.01903207710706029 
-0.01585508076707084 -0.1870913294398815 0.09914483486724242 -0.01353512370067062 0.003513492570380621 
-0.004626477613923965 -0.09067769932096445 0.09760364399015782 0.08616547083467642 -0.001119630512423208 
-0.1219341957476585 0.1126630932592249 0.1022519149496397 0.06080319252995184 -0.02559898750984874 
-0.04608945472081055 -0.1175362964933299 0.1686762690512494 0.06329102572884415 0.005136076784290733 
0.06645247571826443 -0.2243745999491903 0.04087274654348009 -0.003672423857165746 0.03053999907710854 
-0.02133438450040977 -0.05008484483541337 0.1392139394388048 0.05742527798656795 -0.02664055177033203 
0.09771950173770665 -0.1996985980642781 0.07523287652633821 0.09323005701153296 -0.02918389210440872 
-0.3098266959203527 0.1967715597551252 0.1944497405319334 0.1070680404159787 -0.05872487392841526 
0.2863934355170344 -0.2689002812118677 -0.1374879403163971 -0.03069792079342948 0.02545587224707571 
0.05529768097963261 -0.2711705620706702 0.05675675747213262 0.04209580554891003 0.003126417166360883 
0.1100530453237587 -0.05790752286386113 0.1107692457632118 -0.06642199277004382 0.02543639789845392 
0.01082331635603816 0.0009335949426755186 0.01495497785703373 -0.01678719120444767 -0.0006065691995745946 
-0.04926570984152705 -0.1010327633637437 0.2183594039513471 0.1327160549873331 -0.06602065487813187 
-0.0837101628233685 -0.1151322629395235 0.2139324339920339 0.1736272164697342 -0.07952969918733488 
-0.06087586412909099 -0.01631590105541585 0.1297399622604064 0.007641404511786885 0.02040293983738165 
-0.2343434512896434 -0.05941567544737235 0.3213180278261646 0.05504921672711797 -0.04835651617035319 
-0.02602318252981303 0.009516377405780096 -0.1176499280393686 0.05478793940284116 0.006456577529359579 
-0.1007321406438525 -0.02271381576715309 0.2025604799211157 -0.03585232029633171 -0.02841860717519303 
-0.08022598233846495 -0.04371032175604828 0.1072493469443125 -0.09185283076047308 0.02503676108979212 
0.04919199773029208 0.001324467542469916 0.06698628794908698 -0.06694254986216734 0.04281617556767491 
-0.1297780139547489 0.07477733123803501 0.09931204572511704 0.04313568915279416 -0.01676279382810276 
0.005019939647858041 -0.14806212186372 0.09975031806504599 -0.03318410965669491 0.07861789145124076 
0.1158097510937756 -0.1893720936611791 -0.03739706365801243 -0.07640955651371681 0.08297805779112509 
-0.02673495526007498 -0.05397596325872243 0.01579126498792841 0.07951806085374868 0.01243056562567901 
0.01882186011581382 -0.1603603849717395 0.06518443276961283 0.2033859574126168 -0.06387767756649385 
-0.06444151701396283 -0.1942648850733311 -0.0188241019959045 0.3033854909021574 0.06209574305352895 
0.05267478323095282 0.07816753588644344 0.01361142643875031 -0.1443770755895151 -0.09338741263338091 
-0.03629225949281295 -0.06237651029527073 0.1562397446918912 -0.07380501909874457 -0.1147679825411552 
-0.05064358100637335 -0.02552078236318911 0.07739588436645527 -0.05883194087495003 0.01872504434593517 
0.02039473451225277 -0.0100525552157568 -0.0816729948808881 0.0008074139320396146 0.07100907213549679 
-0.058144866684799 -0.05727301719231747 0.07078081304573072 0.07684044580258412 -0.06906852578081615 
-0.1068833140737914 -0.0395908633860812 0.1420830177342181 0.07433450042572733 -0.1711349596244813 
-0.008747568295239141 -0.07739704493124207 0.04252466329700941 0.1087637076039949 -0.04701395661626048 
0.01095656782977569 -0.165777006766508 0.07056278953675231 0.2056287505479432 -0.06344364564245357 
-0.1226849452601228 -0.07488729935286217 0.03117048181418753 0.1921252577120685 0.04328620512476333 
0.1113405273590904 -0.02640730458560905 -0.03273000842550389 -0.06086672515060085 -0.08634547790595824 
-0.05547674905672977 -0.07177475032165534 0.218184270159351 -0.02903486786353872 -0.09798720107141869 
-0.07310591128567601 -0.0513105791016923 0.05622354596232712 0.08908970718003505 -0.08008866659431692 
0.05704228115395308 -0.07742984976914852 -0.008485778774011484 -0.02501784736743418 0.02243212673543518 
-0.09920936815551031 -0.08704561676088304 0.1950556226691114 0.09649648593800918 -0.1028917957416773 
-0.1955956142715301 -0.007194325107125896 0.2176648305019421 0.1388366133279239 -0.1506650593495057 
0.01676886151250383 0.004655519053286808 -0.04782871034767757 0.0406250144314174 0.01503595701589209 
-0.1278300110304586 -0.08352020743268257 0.2361016511184954 0.1384337211472103 -0.02812322767538103 
-0.05888382691228521 -0.1998574979577568 -0.02910097438592736 0.3009409684979237 0.0597307276773838 
-0.04982407808170387 0.1296821921455294 0.1494406492105013 -0.1805902427358574 -0.07283641165273756 
-0.07120352156122238 0.01666283565666073 0.1580600350910964 -0.1109272724327671 -0.1114218410365614 
-0.02796049198722007 0.004229838063910588 0.05002051288249709 -0.07126153723907297 0.004406235757561065 
0.04782463725618012 0.06361857972802973 -0.143088024693427 -0.04868219374918579 0.08896166640987858 
0.0620219971007368 0.002168044809643049 -0.08207765623860619 0.08387830688266106 -0.09766294169050235 
0.0052238610018457 -0.06278323195698167 0.04200967316247702 0.1430891806001574 -0.2125211213993681 
0.0284134357202187 -0.09166277779765994 0.09526691875319358 -0.1055858161997054 0.03920753636099694 
0.02695305644515782 -0.2466093612803189 0.1079077449440799 -0.02143394311330867 0.03303347038087084 
-0.09000082086586214 0.01688546726030323 -0.1120094726941062 -0.04070791064276866 0.0707590110487218 
0.0661152242887455 -0.1481490181019511 0.1044847066618102 0.006298195139646728 -0.02992342289753575 
-0.1173189848579212 -0.1062636297665995 0.2391520015721787 -0.02010363306692951 -0.02068624342574871 
-0.07608810192967101 0.001752473265142834 0.2233997207413957 -0.1899207482474752 0.03748215292946265 
0.103330709136133 -0.01405825386707305 -0.05027190090135805 -0.1537157097728917 0.05483527718337691 
-0.01880327002824249 -0.1422969556755238 0.2419365031097249 -0.1107101516116914 0.02890483612673327 
-0.1523862290351313 -0.1262735964594452 0.2817750878597341 0.0524795690265558 -0.03350140921931752 
-0.02782265148201619 -0.03291734129538332 0.2104559701575027 -0.1257922359878623 0.009872316744192075 
0.03662156874765427 -0.2384828907340326 0.1122987805291301 -0.06513588656748083 0.03474913091128913 
-0.05792289838040757 0.1080069690399769 0.02160661758197589 -0.0925463382615011 -0.0009227354306008372 
0.06118882848373046 -0.2554668707620137 0.02238504435021801 0.01819080204328044 0.02609263071173886 
-0.01664012399719765 -0.2455783264904797 0.1269491929770177 0.05994073231462462 -0.03114483935593716 
-0.1984275216794092 -0.02120017482109504 0.4910510303333505 -0.2651189794622318 0.06839824908052045 
-0.04176553154979569 0.1160903637274825 0.05338637622075851 -0.2207792212947598 0.02992538829154705 
-0.02103492159996025 -0.09310205379359063 0.1514025276380879 0.06826143019518309 -0.04319385394854339 
0.007348667037708643 -0.2483423439343294 0.1141106095253952 0.3321683698239617 -0.09268876899971039 
-0.00333232715764401 0.04550676776458525 0.09053252785656835 -0.1903241024560744 0.1011503381582182 
0.01341870967195704 -0.09633069332129221 -0.1212607937275896 0.1466565600113582 -0.02478987325577249 
-0.09000082086586214 0.01688546726030323 -0.1120094726941062 -0.04070791064276866 0.0707590110487218 
0.05788955414016982 -0.06169714098584823 -0.03749335822514591 0.1103203294261566 -0.06510818496624203 
-0.1964245236761137 0.00991909816203753 0.2811689824989658 -0.04618909941491231 -0.01167715240180328 
-0.04241536486087563 0.1198158266882995 0.1494040883178709 -0.210766046850883 0.08027002805331007 
0.2624492205497699 0.003405844986796661 -0.1476088315597003 -0.164416633223744 0.0850635924317014 
-0.1675489356760738 0.03969221662318985 0.3758081940804648 -0.2443414119008952 0.1062369668585107 
-0.4059294516866695 0.03726564318242584 0.4170687853914617 -0.04280324518060501 0.001321795296915181 
0.06708570231828957 -0.08729748932319981 0.08667752822298133 -0.006087727602055899 -0.02263770472040229 
0.2169650029758145 -0.1244755893497059 0.1676126379306315 -0.04876631922951284 -0.09821442853202449 
0.04492154347917372 -0.01522663242971326 0.05496560340432208 -0.06960814472872466 0.008796810962729442 
0.0699206414079338 -0.04591048191593106 0.001186346583052213 0.02098330519238714 -0.06465158371021495 
-0.113236900275114 0.1098866680759334 -0.03436911165769774 -0.03193537214161088 -0.04206075094910829 
0.03874785456822517 -0.0994888510789558 0.02842822676926072 -0.003023583475572245 -0.01967573018685926 
0.09817895548655531 -0.09094705835942651 0.05144810005358684 -0.02972955737644908 -0.00831691620109962 
0.006115914965680325 -0.08721839876442347 0.108515018730235 0.0543528698845446 -0.02831778078694044 
-0.1365733963368246 0.04349133541908507 -0.005150506415359286 0.08104787188397893 -0.01778343552338157 
0.1031178602252042 -0.07456856624742264 0.01005690503604345 0.01340893430675642 -0.0666403372806602 
0.209018921251345 -0.1162905511320515 0.1435852855514902 -0.04103492761885806 -0.09324564883848319 
0.121340428043795 -0.054987311237735 -0.07098587142311318 -0.01442907413082941 -0.02225052102071098 
0.03137712523986233 -0.02353445564827127 0.1039700564804265 -0.02551822033647832 -0.04364643659476888 
-0.1465380272441023 0.09706239405459434 0.1529901906024428 -0.06263002835216765 -0.01669960036332053 
0.07336414373280088 -0.0006738679962404962 -0.1031907267707438 0.07851232176261519 -0.07913113230025848 
0.1598532289971502 -0.08886793471775413 -0.1505105328608166 -0.04337411077285977 -0.03348468211154903 
-0.007752418502992503 -0.07288317276226146 0.07506435650367005 0.05872519879781455 -0.04088948680700768 
-0.2078238838716894 0.0243107479089608 0.2257465998280443 0.1119963908821434 -0.01163324143941264 
0.07707526130291061 -0.07919228482141528 -0.0008554532580289445 0.05348980560985395 -0.01055092003148468 
-0.03409171953149913 -0.09507678784353324 0.007226205824763777 0.09646810783618787 -0.03479514737718673 
0.05227517511870591 -0.01724949715089686 0.05258464618963265 -0.06703205457927895 0.008368309745468899 
-0.08141090793153299 -0.02748005596608175 -0.08843996594739527 0.1039838472021303 -0.02798565212733242 
-0.1749580578327928 0.1795577041008768 -0.1007950433607745 0.001712830223151572 -0.02906112368379625 
0.1240411639893968 -0.03648806018354372 -0.1212139095225397 0.02581096971067138 -0.01370225704421384 
0.2065961152686633 -0.1064150848858455 -0.08164313509152941 0.001878672617961284 0.008183110460161822 
-0.06722274783635358 -0.02329631299011153 0.05151796822278495 0.1082941791446481 -0.03402350023005485 
-0.3185410728685635 0.1018019231632523 0.1347963217760694 0.1129922468437086 -0.04709702078387878 
0.04488367537409879 -0.09209615110494221 -0.04148356407648938 0.09826247208502004 0.00974765970922517 
-0.01573285310845507 -0.05329781009798613 -0.08210739626277057 0.0245509850349729 0.03798904967023787 
-0.04243341771315055 0.07822920242452033 -0.4042598916050065 0.2631169526931167 0.1021905803228275 
0.004462178034702472 -0.07663574937635118 0.1600867534239463 -0.1536126639380461 -0.03712528790841842 
-0.06924260811486781 0.0636746883014021 0.08253400374435721 -0.1275439559500066 -0.04890971608879889 
0.1206882727008275 -0.1126327751673258 0.08371631083854777 0.005693583506769994 -0.02844575684629166 
0.1233444041660204 -0.1881779832180272 -0.04798393083725725 0.04908070093977512 0.04552268023315573 
0.04740196987279138 -0.001270303598047185 -0.02949522876508527 0.06392313546843413 -0.03041153371357797 
-0.1037249870631889 0.2458564079104098 -0.018066606207056 0.01574788918600923 -0.09934230076196984 
0.09675289780958116 -0.09279086917205004 -0.02452643938519298 0.02909147058134785 -0.03090502209734147 
-0.01277077032941632 -0.05210050236736558 -0.09110294476066548 0.02481284609542085 0.03827800807085549 
-0.1420958175128952 0.06863266261681684 -0.02059704575184756 -0.005731546357849667 0.08152772767063668 
0.06596396192257287 -0.07253957871960495 -0.08318158228191962 0.01510846376727383 -0.02024578180399335 
-0.1181365869226357 0.04692764620152785 -0.002730419264700193 0.01821624065842267 -0.01318549100291972 
0.1194961373858198 0.01263706719182675 0.003155642123219806 0.01159684714140636 -0.04829187112723983 
0.1936341498362562 -0.2273373739694584 0.05988787558111457 -0.068148197769032 -0.0199341124707353 
0.01528456223294076 -0.05611339621436467 -0.02581880066131663 0.06138227166041572 -0.03116533003944012 
-0.1823625713350761 0.1627592038676072 -0.1253896141721473 0.133405062450958 -0.01913063909651808 
0.04099261986188721 -0.09591790501762995 -0.008852020555285172 0.05802166496999281 0.03917530081915139 
-0.2422755024254064 0.03216618683926484 0.04879337460007647 0.1316851076811831 -0.01233325984747547 
-0.04011377887622537 0.07673567978279909 -0.3956536019315065 0.2544910095806208 0.1003902626866812 
-0.1573590895694444 -0.01886145537527071 0.2613228302571751 -0.07703598520933047 -0.07390799617517366 
-0.1142972713547406 0.06501195784293402 0.1809165071884601 -0.1593890725392216 -0.05630628690955917 
-0.03712598034521121 -0.1533893085155534 0.3096263045458922 -0.1181214849501622 0.03240879098449452 
0.1320531313721713 -0.1814194506515165 -0.07382342672349522 0.04539475288319063 0.07295694002471774 
0.05550112116690392 0.02515475298816421 -0.0006640350797004622 -0.02239222963306775 -0.02866206427859586 
-0.08185342232002557 0.2335978297106487 0.06446411068141612 -0.08100938318716908 -0.1151576667068897 
-0.1396345277786621 0.004495062084092985 0.06639890826443463 -0.05464691715971313 -0.002010888491467906 
0.1041375487703672 -0.1407357116688473 -0.2244644072476722 -0.01693172594643924 -0.005613403805865592 
0.1900182195740454 0.07484019012039109 -0.2738340752697143 -0.1622140343925914 0.1026446502273854 
-0.05853319076048402 -0.1093043446170354 -0.009586347971306225 0.07066911650282665 -0.05971167533107011 
-0.09796312685151377 -0.03333520187262885 0.04990602115446571 -0.1040510203750911 -0.01191734015540163 
-0.05269985344349258 0.1647700273112964 -0.05149440465169793 0.1393912997900925 -0.1450296975126355 
0.04202125308739084 -0.1045452439297622 -0.1343295648951971 0.2275886212019803 -0.02373047997586187 
-0.1349638469734734 0.07204157278136207 0.2417724728710355 -0.2029392330409587 -0.05097961900360209 
-0.1081908068202646 0.103715658624873 0.17611372189028 -0.2417931319396634 -0.01642634556026329 
-0.03376310614882397 0.07930845683852546 0.1737568039596055 -0.18925550898632 -0.0914237696180473 
0.1345666387605833 -0.162026521420899 -0.2534283041658951 0.0003442596071337395 -0.00462768411445365 
0.04644574376036603 0.06790660709959682 0.01968046895064429 -0.07236861521164728 -0.001090535861196599 
0.0585634338067445 -0.1349173157506716 -0.2125567100979613 0.02772305009150859 -0.002920455508695297 
-0.06235495105378817 -0.02324187912606588 -0.06503243065880351 -0.04210501856958128 0.02493132595993282 
-0.2048975200027827 -0.0119171717938231 0.4198566765213037 -0.1773885484108416 -0.07077061154763482 
-0.0001382715120061082 -0.03169620589012773 0.02488291612640972 -0.07913498383252282 -0.04349570272455509 
-0.1340482966210323 0.1281133955665723 0.2664077178445971 -0.2644282481753005 -0.02292326159022393 
-0.1185123590180269 0.1261772335638237 0.1952460612558028 -0.1921565350044947 -0.0004724305906801136 
0.02225135841454955 -0.07060636197214099 -0.1336823383754753 0.1387216129579845 0.0189050005917933 
-0.08133922804518415 -0.02660019005770897 0.2890377988682667 0.05633833197954651 -0.1055169645404407 
0.1476633947550952 0.0700941105761287 -0.2576159524123193 -0.1624525727551877 0.1025474936650075 
-0.1805979922323108 -0.05854611152047326 0.3174831107760215 0.1504945588900721 -0.1412523351958652 
-0.05836010280190157 -0.02389656805671633 0.1217312116921727 0.001344862317787483 -0.1246612504114674 
0.04598774287908676 -0.2655882445584276 -0.172994153431747 0.3583296350550892 0.01031907261983251 
0.005145288717400772 -0.1301119033733769 -0.1706878805020759 0.2745318992739901 0.04213137485629215 
0.1603518488425074 0.03805816619276473 -0.2327096175235076 0.07396004097462743 -0.03831895202854641 
0.09066505552689069 0.1705463540297497 -0.02470520483949014 -0.2418639253587969 -0.06990562044429503 
-0.1146263510723688 -0.08317217931180863 0.08714227001845941 -0.06152916745382411 -0.001716403407623111 
-0.1341262689760374 -0.0628773893740044 0.1626776332420522 0.1632129469754001 -0.07056499023885179 
-0.1707243751371244 0.1344591610934375 0.1795035727646993 -0.3456484047342053 0.1793929010207486 
0.01112741620656702 -0.1226326945164741 -0.04717578401918205 0.3321525631229839 -0.1679901812785612 
-0.08825128038778615 0.009930810376729597 0.02500749350452039 0.07923876603895473 -0.0947524340243053 
-0.07751316378885548 -0.1025930395259949 0.02640435028293828 -0.1001277480512177 -0.01069723492545812 
0.09063701569505511 -0.4290805328014842 0.07330589096580606 0.08340681059791137 0.1040029410373274 
-0.04808027865008917 0.1222576470564196 0.03086153844460908 -0.1092558362802622 -0.05970638453004523 
-0.08534246365623659 0.3018129492837588 -0.05601987257723554 -0.112049908995263 -0.08772029285189599 
-0.1191524220862712 0.1349970854616263 0.1125741771898821 -0.01714222821552861 -0.2004014966624422 
-0.1329580763235624 -0.09219589350817683 0.1648679135232678 0.1680578611677197 -0.05100112698042892 
-0.008227400185434643 -0.1911171769858943 0.03334565613023937 0.1516468410660805 -0.07852811701218262 
-0.1053122844124869 0.03502844073055672 0.0801258747797413 0.04278386028729694 0.001256839620361076 
-0.1636083277458985 0.07767297159076936 0.06710336307818994 0.06674447535659504 -0.04259397675131563 
-0.07130922577428736 0.1778324267860014 0.02429998786543095 -0.2033738833476771 -0.07222439333304015 
0.06569059670062126 0.1259133074834038 -0.1071199559061135 -0.2202673025610491 -0.1589287489232836 
-0.07693861405307802 0.06961153275265834 0.02732255772862102 0.1359579752650124 -0.160115702282171 
-0.1093911368281891 0.02611076663560874 0.06014241297599383 0.2254801130347977 -0.1050679310317977 
-0.04469482850106742 -0.1821438249703247 0.09824657580187675 -0.04013589652432867 0.1482645158205518 
0.1033114657721933 -0.0700204409587874 0.1821644958210022 -0.1264069383150017 0.02955041936913223 
-0.174328859077246 0.1343427500121819 0.1812355004393456 -0.3457661482006826 0.1793716767740514 
0.2232190956083558 -0.1644385162860402 -0.08908937307751839 0.2167442220366722 -0.1471464182176377 
0.01680931513213361 -0.006408330057049643 0.005108658652627952 0.05453967398468764 -0.1438691256548772 
-0.09543609105621446 -0.4283743152627986 0.3295890715644068 0.1646171897253514 0.04634434438538091 
0.01462254862367477 -0.1442402984992273 -0.002349508346117702 -0.1021449485622272 0.1355412475385041 
-0.2177380924173308 -0.04953277066835817 0.2340936877381379 -0.002829111721618335 -0.03319462028577486 
-0.1336603022984807 0.1335634613966416 0.06571263208795651 0.08918849362617094 -0.152037949258766 
-0.143395272476972 0.2289469213658381 0.003059088823131745 -0.02718790099021244 -0.06023233724164184 
0.1765095838470149 -0.1220481074153868 0.004576885744764824 0.06199484658555166 -0.1332542211582931 
-0.1840449201277992 0.08429414169644123 -0.135840277515152 -0.007532783073823462 0.1332694108565762 
0.194172436917452 -0.1099590372057221 0.0438588963713427 0.03305364469881526 -0.1519364725027959 
0.1174861620896643 -0.07852676162417208 0.04712360848315524 -0.007036317673553223 -0.16040096935687 
-0.2640005773345014 0.07993855673363916 0.3428956379078875 0.03506552075042271 -0.1147568244591054 
-0.08078541628706629 0.06711279833677788 -0.126824010256972 -0.1830118191549896 0.1373356102232143 
0.04962350054612256 0.08665816465504116 -0.001225035086521401 0.07369965375808249 -0.1707883062119353 
0.05859433577992173 0.01574533034277315 0.03388015870733158 0.1319141317053893 -0.1649622055757396 
-0.02601411084993348 0.209041463494231 0.001756465229806674 0.03928885949359199 -0.1886973158811277 
0.1872381426808397 -0.1218318538280002 0.01570093254819559 0.0625335662635894 -0.1492684751934403 
0.1321600674411553 -0.007644470133838792 -0.3331795414755608 -0.1071476808007824 0.09017327714239066 
0.06114853692116241 -0.0793073163606469 0.1585744125356052 0.09547763996016491 -0.1576678059466053 
0.1353854240141409 -0.1101522210275647 0.1059901536808304 0.0341121803839583 -0.1398198203103428 
-0.2368557676696081 0.08836641202478757 0.231741952117175 0.008939282525032725 -0.08197750464203807 
-0.1317990549266065 0.2322898520787302 -0.06961045043252281 0.1290402808203632 -0.1087800360820371 
0.07298153111465733 0.09240402545937884 0.06259175882518386 0.0220913260110665 -0.1594753298828412 
0.1464398117558005 -0.05138564556404018 0.08538838010166289 -0.0638815686500515 -0.08564018582797109 
-0.09699065009910129 -0.07053281263786039 -0.1435487299914115 -0.03507850102533867 0.1345164003644813 
0.2032020216734932 -0.06614898047613781 -0.3137385104174282 0.1707492529132945 -0.08635951667104025 
-0.1835348092408331 0.08608848992663534 -0.1437674071541966 0.003567743742885153 0.1314027024493965 
0.2248575754005111 -0.0858672397965265 -0.1041554096787023 0.07918124933863685 -0.1388081106995986 
0.04126625084486867 -0.01814988936592005 0.02551487363494023 -0.07368749470164625 -0.09049018919492759 
-0.09558910115783829 -0.04502619771891234 -0.07357970329302634 -0.1089331797026483 0.06998461898213446 
-0.1942530508203684 -0.09039695328917391 0.002388576430845173 -0.09772208496222635 0.225142882648926 
-0.1573851360132825 -0.07723963398325566 0.0159436334133578 -0.003899362272080785 0.00161838980776864 
0.04757386008808 0.03233684370613654 -0.02209912638430567 0.07385414410099289 -0.1934322986552487 
-0.07464435402030227 0.04418651141962943 0.05218250179664792 -0.1819767065996949 0.04514537310749456 
-0.1495654983434006 0.2421721039494587 0.09930990647794122 0.008544934083909567 -0.09740306958730625 
-0.1469037674916118 0.08200742760003094 -0.004972153166236917 -0.06759104520426695 -0.01591706193165746 
-0.005356248961941795 0.1145941889025987 0.03021413616432112 0.0464181407976386 -0.0549772388861628 
0.07758334311444319 0.04041460571420657 -0.04056492968063357 0.09359515931414018 -0.08171419906693878 
0.082479465535053 0.03766851192171039 -0.0538440360226197 -0.03114923102895665 0.02033005311579975 
-0.0345431791553843 -0.1382514921316101 -0.05261970420388493 -0.1765033775588211 0.1289661281100586 
0.1062092782387301 -0.06643116684536848 0.08511325932740407 0.1593465080511651 -0.1490971482977343 
0.05525965404362712 0.05907934602852365 0.03181661367444563 0.1634577301406 -0.1410408302181124 
0.04417442875225137 0.08832572813836992 0.116949431680631 0.09752741726807508 -0.1775710269139242 
-0.1437678296645257 0.1642817201975858 0.1088605800795619 0.02466033067503333 -0.09587029069882819 
-0.04893164052179411 0.1731097229333635 0.06194658148082884 -0.1459046710476803 0.07783279812934663 
-0.08569679735217471 0.0265773415360585 0.01432883018883976 0.09538876385791778 -0.11512607833764 
-0.01325073412481487 0.0795128513726277 -0.1215263233944846 0.04951597224050751 -0.0597545317989174 
0.08282500904163043 0.1100488352387962 -0.03507257392331928 -0.003244424194268978 -0.1363492639149669 
0.02915249666430985 0.03205450498596066 0.09877351392591271 -0.06613585509451486 -0.1028317840575413 
0.02153929573258347 0.0559073751506555 0.04376634974445127 0.179810859900137 -0.133471765254998 
-0.0006645130400504112 0.04426841158888455 -0.02999499121288585 0.2180875773383091 -0.0790914697889276 
-0.02503828307063758 -0.153878542711194 0.002508907927004231 -0.1507077963324872 0.1479766046186818 
0.254742315057476 -0.2458178019097728 -0.05328995073934845 -0.03373893738145704 0.12800979084283 
-0.1097841315395742 0.05458430355488887 0.01409617690855485 -0.07785414748035609 -0.01950783130609795 
0.23439194481907 -0.1873658466455473 -0.08898755466169792 0.03047230002495239 0.09597260051186422 
0.1320699485499539 -0.1045399281206789 0.0657474789755019 0.09281853212305094 -0.002912094971258675 
0.01905043293885624 -0.1298522748305687 -0.01170707561496726 -0.02878989965752987 0.07792939079618785 
-0.04227396349617073 0.002104347002562922 -0.1475135903382936 -0.1826114021647539 0.1897193813253656 
0.03564556015885682 -0.08148832639295046 0.165665431800934 -0.1610067341761522 0.06357534654215305 
0.05079063523296112 -0.04941672109551948 0.2114882500987713 0.04155673409198515 -0.1247663860080418 
-0.05236807805884506 0.0828702928038747 -0.08595685923606146 0.02899010994555291 0.05585820428967764 
-0.1334888302156996 -0.2019866953163986 0.3798859755197499 -0.0748364817431403 -0.06514726609664136 
0.05311347416025283 -0.0535771578126775 -0.008452425143001801 -0.2764972138755573 0.2111761510299075 
-0.1207662997932534 -0.08157340215574894 0.1956852199674981 0.09914681690393122 -0.15579903440385 
0.007924962838672759 -0.1606704353380789 0.03392591734842399 0.06719256100161376 -0.1612039773830439 
0.294560315900094 0.01171646556914106 -0.2326826958189524 0.2474961621582835 -0.1055220857915605 
-0.01651937345451698 0.06871142493939988 -0.06388123705325134 -0.05273735223088449 0.1857084149892174 
0.07836226520617393 0.03448919954171111 -0.3465184808556335 0.3021715239373403 -0.1836182563994978 
0.0424213034816045 -0.006534121134748869 -0.1922842763118509 0.1880816580955782 -0.1938502210505745 
0.03646564797729616 0.02152285544550382 -0.03742689647260283 0.1502972973088816 -0.1680988924447969 
-0.1423675776454167 -0.2017035545844111 0.3862023940003334 -0.07375103405404468 -0.06497669185548872 
-0.1118082705045269 0.004504309124051399 0.09332353400740144 -0.01699227202597196 0.05478230756281299 
-0.03961618635575993 -0.1434152124635718 0.1894344248308863 -0.05078194865062538 -0.08545688604692529 
-0.07927541003349704 -0.2442474229510148 0.1459567989467314 0.00869011732775966 -0.1125556017419036 
0.1250975065354793 0.02124006738988217 -0.2474352335731246 0.2367392484817914 -0.178919428124461 
0.2060869807533778 0.02105995617401968 -0.1397604402489917 0.03327029686806136 0.02269209900447008 
-0.0253858283770129 -0.04376440682403022 -0.06203380778143838 0.2255025084157908 -0.1885524923372311 
-0.1321668207902977 -0.04652286207058243 0.001859725364311015 0.1824581314293045 -0.1812011910248669 
-0.0468693502161351 0.08680431134500556 -0.08749186433841297 -0.1434478562353877 0.1940600801954167 
0.01037687015638092 -0.02852830962936975 -0.0974961869805529 -0.0927319484049404 0.005907254397559167 
0.05046517653325693 -0.05621096565085607 -0.006313186403577017 -0.2726310546014139 0.2105054321789538 
-0.04528388552487898 0.03606243914939161 -0.09497905615272689 0.1339908409501314 -0.1497828212783589 
0.2271435622780045 -0.1172915815679611 -0.1852405430348764 0.1363111403023074 -0.1482868845793902 
-0.05212706749211406 0.04617588553533961 -0.08301470198796272 0.02116126461470737 0.1122690771695316 
-0.2350357323939796 0.1031086173521524 0.05374585294558369 -0.212611037696626 0.2363477111990736 
0.187952766494747 0.005490618461135662 -0.1776103554831198 -0.04718060835220404 0.09928855361990142 
0.39211919039833 -0.09881290657135663 -0.2467979435077768 0.1910126833110062 -0.1908605643510089 
-0.138543175782882 -0.1027204793233982 0.1023320225929174 0.01143239384364266 0.009012351367128975 
-0.08801202761835028 -0.1461369783807697 0.1976278689729726 0.1991151612567066 -0.1404714190957825 
0.04439419444314603 0.01447424354496994 -0.1696649510086212 0.1658868403683146 0.05343062315451191 
-0.0914766195227108 -0.08741126325658756 0.1845849806445753 0.01233711425643459 -0.116989493864561 
-0.0489098926193749 0.02616605241483031 0.1696738682102564 -0.07965917168793483 -0.08520878163598332 
-0.1902666255821571 -0.1367605899762721 0.2428858613688454 -0.01705762324588677 0.008569482086809152 
0.04015540756325123 0.02709471727224949 -0.1391133911190624 -0.07930072643298326 0.07907288412534803 
0.01773386366404813 0.09457009165893901 0.06843287019042968 -0.2677632558561676 -0.04638540532143615 
-0.02613208924492585 0.04783609737944122 0.08342541475907034 -0.1152308058956983 -0.07353131392932956 
-0.02217442097366391 0.0124110173627827 -0.01494837129100205 0.07815206738763586 -0.1059674278913835 
-0.08794517801929383 -0.1471773120520891 0.1979634564764984 0.1991218592110902 -0.1404583610214785 
-0.1380656741033227 -0.1626487901936691 -0.01878390347708491 0.09773143284643812 0.04047281511193074 
0.003746105032452537 -0.0100546369248736 0.1448243404983818 0.09617738079571636 -0.1447595083988047 
-0.05124854096771123 0.01440040337542459 0.09569715852122483 -0.02885775253522759 -0.05538080909754119 
-0.02969255038092072 0.02987123343997898 -0.1014319345767659 -0.1155903880192639 -0.01033678564818894 
0.04604336795919244 -0.104171514858966 -0.1027393342251509 0.1863199804528495 -0.09467007082700098 
0.18346784023227 0.05755717717041597 -0.1320814323016468 -0.04890365006201583 -0.06444524096985699 
0.1380137674811286 0.1196595284532269 -0.07810374758994436 -0.1601538324520486 -0.003922044630545685 
-0.07045326848155019 0.1082394846166969 -0.3198744078381356 0.05203895992481292 0.05360392640925992 
0.1793948977200504 0.149151409734674 -0.3707346550055191 -0.09646779141621344 0.002210828313620993 
-0.04663822677996301 0.114176506173133 -0.1783603243908467 0.1488611131312301 0.05168019124973456 
0.1195052449966136 0.01186744352789743 -0.1201273258757873 -0.1714561630367435 -0.03642439043576198 
-0.01684512524164103 0.07094727083376394 0.05330278152864401 -0.1732946400917007 -0.08324736565689997 
-0.09172237701857411 0.08425027434266137 -0.133357110571718 -0.05355907125647916 0.05043458016367468 
0.007361356168065306 -0.01091395253424514 -0.247993664401035 -0.1195507286126332 0.1213622032519479 
-0.163603227944526 -0.03120177510046845 0.03367787356445343 0.01307145473989437 -0.02513768382202358 
-0.1447548991400468 -0.003016554866218796 0.2354729391091288 0.1199159622147503 -0.1406913539893495 
-0.03942625966053175 -0.01100997219147738 -0.09376804894755179 0.02104309349409819 -0.01256404387170942 
-0.07574699775026618 0.1513104386572309 0.01058247788518691 -0.1351034120543914 0.002579549606701951 
-0.04292121091812467 -0.03970222339906994 -0.05252075004118333 -0.04700357657850351 0.01016074808123516 
-0.031252530021154 0.1218202959660082 -0.00195401106397338 -0.05988477148930597 -0.004993845082840972 
-0.04197667366301546 0.09570146019524353 0.02065513126263945 0.02610614975819488 -0.07323904209879892 
-0.005066694997243606 -0.002231834790707453 -0.0280204028776108 0.1411257334118357 -0.04511675805102383 
-0.06540759991965032 -0.144472525084566 0.003867877467892781 0.0001192665054564508 0.08438713261915574 
-0.07149290395742182 0.01971625869475362 0.09083020750327238 0.04783219647915951 -0.1128900487301244 
-0.01217972634275941 0.1142731897717902 0.009096955239397608 0.01719042595248139 -0.1187413294850388 
-0.09775656296074973 0.05545967951924589 -0.03375354690749446 0.2228786221787352 -0.1322250213286955 
-0.05433113421162714 0.1328196938965594 0.03678735731577963 -0.1485574069971806 0.003819381892049232 
-0.08252215597238372 0.07793287952382273 -0.145286758385813 0.02389954135311134 0.04360153699501182 
-0.004169358633486308 0.06015967727895635 0.07364617691497816 -0.126000065843032 -0.02120010432751803 
0.06051919847467355 0.08002916678742979 -0.05312798864008557 -0.0513750132401086 -0.05555882837990404 
-0.04976735260422227 -0.01758909624934403 -0.08582799387607254 0.1317080155232531 -0.07398869833926371 
-0.1768041500748125 -0.07937741696347263 0.09913329528649316 0.1967840129249341 -0.09145685018840971 
0.02645324631873118 0.019235877757592 -0.1463877055306783 0.2480638270120389 -0.1798521111472513 
0.1583389523499245 0.08923785424718098 -0.2632300084286541 0.1159006882448658 -0.1283766777650123 
-0.1762154416735082 -0.0752075510299952 0.1770651201853483 -0.2190667453660992 0.1413100153486437 
-0.1346598596324524 0.04130530424439974 0.2963159414122326 -0.1491941379172921 -0.02708341755602616 
-0.06998565658771516 -0.03334486858754122 -0.006072480279847086 -0.07527934824694775 0.00643337419704049 
-0.03248888005955455 0.0592481276668419 0.1224000406829481 -0.03271537664187635 -0.02003046242650311 
-0.1224963105756607 -0.02255777438553149 0.1926188478237676 0.06512793886084088 -0.08046390773885889 
-0.2291397127442382 -0.07299871461667255 0.230562948052787 -0.1812031877176818 0.1997519000188244 
0.02118414076812085 0.01550890272904832 -0.09951739673676188 -0.2402556813938493 0.1505396488476165 
-0.1386581307366343 -0.142632147248211 0.2620111209823909 -0.1064780798255512 0.05704550475648248 
-0.1311872241812879 -0.1039510411928073 0.233096172477291 0.1302264357593307 -0.09540345122513089 
-0.112431561167329 0.01634520562959463 0.09119487610282838 -0.08128730748192163 -0.05719465459668757 
-0.1187491531562596 0.05451895225014614 -0.1146246108771246 0.09388339422852206 -0.0247668376838045 
0.0917270689993219 -0.009662776794861151 -0.1546545983927486 0.04647817648253586 0.0914781500324717 
-0.1524050826494398 0.05281690121103033 -0.01318915946313389 0.02402833495601807 -0.07687203778913386 
0.03348790777812952 0.07444203708283395 -0.002478030700532927 -0.03229941923509981 -0.1564401498156818 
-0.3432321516860424 0.07996061251063161 0.2882704010939856 -0.08154404702685139 0.01268229026699417 
-0.145536679861488 0.1889975976716881 -0.1041858742146384 0.05061194872401262 0.03880581578887368 
-0.02208185669051642 0.1255890052635137 -0.01185907064132368 -0.1415786291199766 -0.1286200398890532 
0.05171587393239429 -0.01602125372638401 0.01651000424759381 -0.1153705830553482 -0.09468948518391704 
0.06821755950740728 0.04248964816961245 0.01450795853121748 0.1735578263767341 -0.2461733921079373 
-0.1187491531562596 0.05451895225014614 -0.1146246108771246 0.09388339422852206 -0.0247668376838045 
-0.09901866508581304 0.06654261679838874 0.04858599519041141 0.09505422036412733 -0.06859747016267774 
-0.0496389371219744 0.01241192511716289 -0.1610907722800763 0.013369802925576 0.02237303052624028 
0.05803061277174686 -0.02366351609889056 -0.1095491592543619 0.02992178320197974 -0.06904875634481933 
0.01505186153044902 -0.03449963636182306 0.05998746935385577 0.09383920783330542 -0.2089155693854097 
0.1182919280271919 0.05729042376655454 -0.1342573829263455 -0.01484923769959225 -0.04115419592312591 
0.1194330359517598 -0.08008384366356802 -0.06113081661936891 0.1496318541056642 -0.1968433028348235 
0.02198474514894328 -0.1125556110100127 0.02002884615131267 0.1483145241935857 -0.1576303143500403 
0.03846867349827549 -0.008942484321662357 -0.1388424516594771 -0.130994990818833 0.1732315175883023 
0.1481936324161591 0.002058887627991434 -0.2453009285535911 -0.1716567224513616 0.1124485965215957 
0.0655080581436267 -0.02432954899378561 -0.0757024772129785 0.02825969614129152 0.07988123430024346 
0.01043512605312977 0.02995608615705393 -0.1056996062082136 -0.1156636927065258 -0.004503556896718129 
0.01184479907065463 0.0934127053424896 0.005067067445287402 -0.07909512677493774 -0.0681580023715198 
-0.05000536601298162 0.1931984750032932 -0.1697178196169759 -0.006752026571676274 0.01931766212888024 
0.03766719589856994 -0.02521503779914763 -0.2225419340417707 0.03860450911941001 0.1317784980903739 
0.08965248763816125 0.0596804064122127 -0.1083757245376966 -0.2051770611991012 0.08774374009854691 
0.02132641180178209 0.06806447600292355 0.08013057129659118 -0.1773203399664337 -0.0476953854595071 
0.01618653224641262 -0.02174609590311226 -0.03500035273918138 0.02104827584552071 0.001182388824519112 
0.1697631311458091 -0.004108929200028522 -0.2337212773460581 0.2577207161416098 -0.08978624390632363 
-0.07131735733947769 -0.005592642675207916 -0.02240109343364645 -0.1432344551406174 0.08271887971481633 
0.1333174394023439 0.00918209722175721 -0.1648783562780788 0.230081503729372 -0.1014488064083904 
0.08132187091634353 -0.0431802992881411 -0.1223287341352301 0.1116724695613771 -0.07379432673242474 
-0.180700711237899 0.1052043998968656 0.1336638267975271 -0.1170647583429221 0.01993009843525466 
-0.1247186464623705 0.04124028572204377 -0.05327617474295235 0.02105943279442928 0.07021896809474287 
-0.07731975426840176 0.007517983817398639 0.1312918779225062 0.1197539539794383 -0.1098252756756734 
0.02595684860441804 -0.01205565878228192 0.06306501438644029 0.0390243394655431 -0.1012377829696789 
0.02005300095071254 -0.03090671809460294 0.04189206583333793 -0.008741380752867824 -0.06069649765117577 
0.1644314420502118 -0.007740768508209619 -0.2208566364008527 0.2594100955202661 -0.08934534185758822 
-0.09098389267983183 -0.07213707420401391 0.2512343110370081 0.05788521638699073 0.02377024517453298 
0.1768289966012564 0.03669153520897535 -0.3395631615431475 0.1837562299999534 -0.08787872083266982 
0.15764875658837 -0.03515179469039716 -0.2143066068777328 0.07308715496562911 -0.05596581693779614 
-0.03825614862560964 0.2214569226610122 0.0006783592443609897 -0.02887867702162925 -0.08992686214464489 
0.04633966722910002 -0.06926209773753902 -0.03919580262509447 -0.08694842006747729 -0.03280876076504771 
0.07995806885921665 -0.1422020797212608 0.03110523373687377 0.002218159467593558 -0.03954534235915906 
0.04527625414136077 -0.09671242145024372 0.03211807954034151 0.05051872884232354 -0.02045765471442477 
-0.102445782317627 0.01366447546495882 0.06377150196094021 -0.1129488160074338 0.102735109955837 
-0.1503509023710517 -0.1536717070435953 0.5079107423950628 -0.2357923922470037 0.06579658675853528 
-0.07546537157787939 -0.009600692713190313 -0.01203925270823623 -0.1453527772578488 0.08264593625881071 
-0.02319984919017175 -0.04704861968302665 0.1819366098180928 -0.004563040651683895 -0.03321307609361421 
-0.031841162800271 -0.03498414893190507 0.0906695907929361 0.04698644331478974 -0.06037628282712075 
-0.09114217793445639 0.03978388611233041 -0.1238998511914099 0.02172305164085215 0.0848718875119365 
-0.1405718914856051 -0.005039779576943377 0.1127799132266207 -0.03519031481132096 0.03561825485582762 
-0.135442301292907 0.009543086458271085 0.1242367303980499 -0.05764304395650958 0.06457310183598151 
0.02847095964228031 0.02238640983218064 -0.06000061225290228 -0.0170322257792223 0.01182137595531802 
0.04324193640822126 -0.09177369073485883 -0.01808276153975719 0.1045029912293684 0.007443896624786518 
0.04394777810288192 -0.06816162381710496 -0.008718854455635141 0.01176095788318335 -0.09382606930233639 
-0.1476488285877683 0.150774404554309 -0.05119417616124102 -0.02014660117020682 0.005546501302999083 
0.0867772779561622 -0.1058061861222297 -0.007787723554105809 0.01053776643718987 -0.06433000492506924 
0.06593365387993361 -0.1790418873103528 0.04053421312878829 -0.02877176517752755 -0.09272655735663536 
0.04450618273359029 0.154315352402593 -0.1691341512837705 -0.01780438240262636 0.09528888419942179 
-0.0172192951437124 -0.02180948997386828 -0.1060989593983155 0.04826525159499616 0.07874843829521015 
0.007873320365705877 -0.167885239166083 0.1529545204925827 0.0121323134206659 -0.07359838945142565 
0.002812926649248932 -0.07341990000000746 0.1129247176539342 -0.02959852881563931 -0.08742335873727089 
0.1328485428744844 -0.2004062643593088 -0.0164062337625461 0.008509605927187858 -0.04882016414702005 
0.04449407311379701 -0.07212751815674276 -0.007449763615974955 0.01198238460747119 -0.09380097757656936 
-0.1659102887985514 0.1287350159123592 0.01876278716644453 -0.1149115668281048 0.05457927783315458 
0.1088956700019551 -0.1164242588456763 -0.04046256131524177 0.05889317079950827 -0.1063068393345352 
0.01828757174225065 -0.1588112187061623 0.03575381863547207 -0.01133663933013535 -0.07748894366225945 
-0.08154258929320463 -0.1096254204883423 0.08575904597869737 0.06605486735185312 -0.06810420896696712 
0.03319081906557988 -0.08376720990973219 0.1049049009565624 0.07584869929799957 0.0384102371988124 
-0.01767432072602668 -0.263885469379959 0.116168194463987 0.01911351840793765 0.0008930940276248231 
-0.03774564324597796 -0.1911168969098173 0.0356311263538709 -0.02403391765138994 -0.01800984832158652 
-0.3390665409315943 0.2382463979171528 0.08280032951963037 -0.05692680561316592 0.1261112098081794 
-0.2695980824757181 -0.1630502825701866 0.2746233311976828 0.04482929788352879 -0.001172336958884815 
-0.1508911378265258 0.1494780693293995 -0.05200545087875309 -0.02110150284700926 0.00935773739640804 
-0.09744153736821752 -0.2034126574543267 0.1862213294274837 0.03560462139459024 -0.007510011556654383 
-0.09127848106469431 -0.142614230722328 0.1470375186873087 -0.003865755803809775 -0.01687823180608666 
-0.1565432789694953 0.1316975829085613 -0.007354428067365654 0.08104866921937413 0.02241777182426807 
-0.1060659556276414 0.1819575174185138 -0.01183880184828063 -0.1787507838264801 0.1526174940024558 
-0.2787661047340852 0.1657959715258606 0.09502169176131101 -0.04287775976713832 0.06464236183124017 
-0.1665384646805774 -0.03507588154389185 0.07577514475776349 0.1541548534526123 -0.1109084081935181 
-0.06569156774268473 -0.08824845490929631 0.1407777214850236 -0.04599453655957736 0.0266606860344839 
-0.03413289353402691 0.004731429017662759 0.1804552165339934 0.004312773829499732 -0.1252563462227169 
0.08045523482519364 -0.1489463272851018 -0.09578352468860035 0.01238967106707433 0.08145592549740668 
-0.07926658336559858 0.1006011907158042 0.1209227139466538 -0.01421192686292688 -0.1191830293519461 
-0.1015586551693509 -0.05949489367183395 0.1144112555178236 0.0253890169687175 -0.1163394905057595 
0.1828718084806323 -0.07858779026805528 -0.02167555867378649 -0.01063715037391338 -0.009024076615196892 
-0.01910330523845963 0.05916145768915799 -0.1570468047186631 -0.03162223441255316 0.1076491839038464 
-0.1125746422141734 -0.1054121305061169 0.1894483329249918 0.01786084406492062 -0.08309316971894443 
-0.06242577629200936 -0.0841906925928307 0.1629688787901666 0.0199612791671424 -0.1102147980115184 
-0.03612567951797978 0.03898476435789624 -0.000254397189143705 0.02515567819335143 -0.07566011105037682 
-0.03361700314321112 0.003611117710019128 0.180571819973296 0.005442094597279928 -0.1252156814791126 
-0.2468118070956666 0.1869870568157126 0.1714738829000338 -0.2182325040761505 0.03973959032236241 
0.08317199990418854 -0.08232897958767803 0.04953355674001161 0.1063482151611123 -0.1324244018209702 
-0.07680816482004532 -0.1668533920391744 0.1725281821720283 0.09144481433278481 -0.1110794166336523 
0.07212798239891378 0.01202835723760564 -0.06439892083217671 -0.02253872501144417 -0.009197475966904097 
0.1153233642433889 0.2660064322033884 -0.2385876990369963 -0.05784253431245633 -0.03932588170894432 
-0.02218650966432363 -0.1092649550775233 0.06549522351819773 0.217924327110864 -0.08815867476045394 
-0.1118661483271678 -0.3058107855702214 0.2220312272243154 0.2879879223715622 -0.07519146721571748 
0.01722719177348283 0.1275171273538952 -0.1290120099264253 -0.1897897701794131 0.132131770384611 
0.09365389418773139 -0.09442292124614352 0.09216282007626776 -0.07764204383432891 0.04653932132695558 
0.08011742983345577 -0.1497005189649321 -0.09601674911590824 -0.003459744862222975 0.09194169597878969 
-0.04408261017046324 0.1014495528673181 0.07469945181015726 -0.04735892814133537 -0.05959066448684927 
-0.07853331358240394 0.01269591945389106 0.05639758061512061 -0.01537835005290687 -0.0731626223266245 
-0.01650144712117727 0.1758863565018908 -0.1917062072051162 -0.1486479837523637 0.09308008375179959 
0.17657374285747 -0.001532961865813739 -0.161406005780251 -0.1435267359740943 0.09529173363276658 
0.022864700182083 0.08267710293464897 -0.12714889768315 -0.1211642785425473 0.0148563665713709 
-0.164847785252924 0.06570198403127898 0.02333032539073964 0.04532719016908177 -0.07954463043279331 
0.1360658686679376 0.03828257423675258 -0.2323869387490553 -0.0445938725256346 0.01169408095873041 
-0.1158734742856521 0.1430680614919663 0.006111490397122743 -0.07654483130017664 -0.1119611382602768 
-0.04412068561138736 0.06550380005174876 -0.1958463255027313 0.06534271211897437 0.01116115262011749 
-0.05307575019646626 0.0547902150708999 0.07195380281415661 -0.08545096317151812 -0.06889263760619384 
-0.08703669163566691 0.02308306484946519 0.01568670445305693 -0.09424354928793804 -0.04764703853594483 
-0.05198810071789813 -0.09904754662874589 -0.006308807606826767 -0.02419093757589942 0.04514627739210543 
0.0462402330452779 0.04404210670718363 -0.1749868711223236 0.05401179655156112 0.06456762652068482 
0.01147423629625344 -0.01077309744741065 -0.08264771086095618 -0.02996228383214583 -0.05711880533993949 
-0.03182959374960201 -0.02032638228940984 0.02320994725215772 -0.05273890712069557 -0.06304312949603352 
